1225 200
</s> 0.0852855 -0.0905421 0.106753 -0.0497896 -0.0330763 -0.0636241 0.0533285 -0.0823233 0.0923025 -0.0104922 -0.0393368 -0.0197551 0.0223019 0.0428552 0.047868 0.0857828 -0.0983905 0.0414701 -0.0264677 0.0610681 0.0927464 0.00345091 0.0983231 -0.0329497 0.0964247 -0.0161763 0.103591 -0.0738325 -0.0468272 -0.0989425 0.0512681 0.098185 -0.0820163 0.087036 -0.0284066 0.0341949 -0.0417766 -0.0966966 0.0719506 -0.0875384 -0.00772077 0.0518554 0.0123042 -0.0820388 -0.0922088 -0.0262913 0.0104434 0.0446711 0.0534416 -0.0627369 0.0266889 0.108687 -0.0526101 0.10852 -0.0944244 0.0695659 0.0425705 0.0887872 0.0160321 0.00214311 -0.0632627 -0.0871387 0.032677 -0.0440691 -0.0188607 -0.0924293 0.0650008 0.0501586 0.104618 -0.0530453 -0.00655561 -0.108888 -0.0163331 0.0381969 0.0675067 -0.060827 -0.0379565 -0.100618 -0.118393 0.0664857 0.0034074 -0.0665051 0.0869177 -0.0779203 -0.0782757 -0.0985433 0.0400309 0.101308 0.0704761 -0.0277935 -0.0385639 0.0247912 0.0311048 0.0205547 0.0194341 0.0323258 0.115957 -0.113156 0.0634535 0.108715 0.0198014 0.104073 0.0566203 -0.0693182 -0.017234 -0.020628 0.0533824 0.0903472 -0.0388739 -0.124755 -0.081191 -0.0433348 -0.0199169 -0.0465276 -0.116448 -0.0534939 0.1217 -0.00315579 0.0522773 0.0165665 0.00324301 0.0629954 0.0473056 0.0248874 -0.0765309 -0.0351547 0.0642326 -0.0828041 -0.0440844 0.032535 -0.0721202 -0.0750001 0.117697 -0.0198389 -0.0824316 -0.0227569 -0.0173545 -2.10248e-05 0.0520652 -0.0224417 -0.0996723 0.100525 -0.120996 0.102254 0.0742234 0.0691723 0.0428507 0.121992 0.0120327 -0.107947 -0.0481468 0.0132828 0.124337 0.0240823 0.0904567 0.0848275 0.104476 0.0997304 -0.100639 0.0848483 0.0970229 -0.0442319 0.0768548 -0.0345257 0.0383033 0.0455633 -0.0868449 0.0580688 -0.0310779 0.0551479 -0.0168493 -0.00500655 -0.0851828 0.106136 -0.032113 0.0668029 0.0441151 -0.0267837 0.019893 -0.0879538 -0.0594448 -0.0035205 -0.0957181 0.0902106 -0.0500094 0.0226712 -0.121094 0.0705789 0.0547635 0.0906864 0.116765 0.111778 -0.115466 0.0872118 0.100347 -0.0217551 0.109412 0.0806841 0.105312 -0.0887852
the -0.0379688 -0.0123753 -0.00311447 -0.0462591 0.056212 -0.0341172 -0.0648722 -0.146774 0.0701049 0.0356505 0.0103981 0.11436 -0.0914957 -0.0278025 -0.00956259 -0.0635018 -0.173495 0.0326866 -0.0878763 -0.00163718 0.0875831 -0.0221942 0.108357 0.120837 -0.0590468 -0.111224 -0.0432419 0.0577122 0.0823733 -0.142595 -0.10323 -0.0198587 0.151693 0.0641629 -0.142622 0.134404 -0.060688 -0.0112831 -0.0498716 -0.00695189 -0.0516344 0.100723 0.0815266 -0.0545695 -0.0154976 0.02395 0.0903568 0.0682167 0.019087 -0.0235864 -0.0466576 -0.0332311 -0.147555 -0.179012 0.0498532 -0.0264008 -0.0375825 0.0353791 0.11482 0.0245804 -0.00892311 -0.023634 0.0155093 -0.00880836 0.130344 -0.0228983 0.00779719 0.0521341 0.0792361 0.0782547 -0.0700097 -0.0767708 -0.136971 0.0367045 -0.0488463 -0.0402039 0.0406599 -0.0826889 0.0256865 0.129998 -0.0214445 -0.0762377 0.0260882 0.0550877 -0.00650053 0.0911755 0.0086158 0.046315 0.0466126 -0.0401979 -0.0505325 -0.0201024 -0.0577679 -0.115197 -0.104527 -0.051583 -0.0208169 -0.125552 0.0781705 0.0764054 0.0115462 0.0120256 -0.0873158 0.000459147 -0.135029 0.0625998 -0.0160847 0.126583 0.00984102 0.113646 0.0306189 -0.0664529 0.0415529 -0.142147 -0.10358 0.00619684 0.00329459 -0.00376957 0.0500388 0.0159512 0.0335637 -0.00069543 -0.0290103 -0.127165 -0.00841961 0.0112741 0.0240512 -0.0680896 0.0288814 -0.0575743 0.0244335 -0.000435752 0.0267643 -0.0443304 0.0335206 -0.0158915 0.0619343 -0.115786 -0.17793 0.0581549 0.031599 0.037968 -0.0305913 0.0736487 0.0999234 -0.0345802 -0.0390782 0.0326625 -0.00597319 0.0534417 -0.0160539 -0.118682 0.0322706 0.0298717 0.029014 0.0187908 -0.0398417 0.114804 -0.0581282 -0.0238227 -0.0140596 -0.00548545 0.0325059 0.0324124 -0.104276 -0.12021 0.0168488 0.0358832 0.0359712 -0.127626 0.0370441 -0.0944664 0.0759258 0.04192 0.0779464 -0.0489456 0.098335 -0.0678201 -0.0243272 0.0422767 0.0804461 -0.069955 -0.0158851 -0.121759 0.0737285 0.0404204 -0.102924 -0.0253506 -0.0595671 -0.00907484 -0.0465458 0.0838832 0.00273115 -0.0943721 -0.0178727 -0.0705013 -0.108657 -0.0692745 0.0985169 -0.0271331
of -0.0665844 -0.0269516 -0.0120795 -0.0429104 0.0649746 -0.00891276 -0.0736561 -0.150187 0.044747 0.0445145 0.0443955 0.10498 -0.103013 -0.0331724 -0.0300499 -0.0792517 -0.190971 0.0347872 -0.0524575 0.0227166 0.0571302 -0.0461207 0.118307 0.104784 -0.0445695 -0.10464 -0.0584569 0.0872503 0.0800374 -0.128648 -0.0839132 0.0234735 0.128108 0.0318074 -0.14562 0.155538 -0.054954 0.0142747 -0.0357418 -0.045486 -0.0677267 0.0847465 0.0623967 -0.0604052 -0.0251777 0.0310138 0.102866 0.082894 -0.0137882 -0.0285938 -0.0441137 -0.0119898 -0.115218 -0.15187 0.0632323 -0.0325422 -0.0446227 0.0194308 0.0981745 0.0151349 0.0116026 -0.0293058 0.00519329 0.0127669 0.166323 -0.0025327 -0.0294343 0.0518593 0.0704404 0.071307 -0.0955171 -0.0785102 -0.132954 0.0291382 -0.0415331 -0.0239986 0.051447 -0.0665097 0.00421749 0.123985 -0.00574038 -0.079145 0.0166141 0.0759915 -0.0470051 0.0540916 0.0167803 0.0357673 0.037103 -0.0211565 -0.0419522 -0.0089118 -0.0816428 -0.117742 -0.0988138 -0.0498777 0.00336595 -0.126402 0.0794612 0.0955574 0.0147643 0.0348005 -0.0811166 0.00410889 -0.163352 0.0359746 -0.0087402 0.149404 0.0275196 0.122209 0.0589536 -0.0516022 0.0378557 -0.146519 -0.0951791 -0.0192057 -0.0275235 -0.00197442 0.0608074 -0.0105229 0.0126334 -0.0202156 -0.0470692 -0.127074 -0.0221314 -0.0207266 0.026092 -0.0865966 0.0570809 -0.0814243 0.0404087 -0.0214213 0.031442 -0.0306566 0.0236935 -0.00550907 0.073094 -0.0906129 -0.17467 0.0463415 0.000580972 0.0462082 -0.0201629 0.0570997 0.112601 -0.0303846 -0.0666717 0.0321135 -0.0126878 0.0358403 -0.0181572 -0.115716 0.0214973 -0.00824088 0.0149872 -0.0187261 -0.0146908 0.141865 -0.0503816 0.0042198 -0.0219411 -0.051591 0.0419674 0.0166572 -0.111421 -0.131344 0.0342229 0.0252247 0.0413268 -0.117547 0.0105419 -0.0398197 0.0704881 0.067434 0.0938773 -0.0362528 0.0598833 -0.0663019 -0.0361482 0.0207093 0.0706322 -0.0611658 -0.0205812 -0.110996 0.104483 0.0248653 -0.0995825 -0.0466476 -0.0650328 0.0080146 -0.0437846 0.0664527 0.00779533 -0.101341 -0.0239749 -0.111141 -0.0465744 -0.0850818 0.0697897 -0.00352413
and -0.0785699 -0.0169421 -0.0257972 -0.0309076 0.0570156 0.0216075 -0.0754404 -0.134754 0.0151373 0.0527658 0.0829849 0.0943116 -0.10531 -0.0462469 -0.0551321 -0.113152 -0.200759 0.0457584 -0.0147211 0.0384312 0.026511 -0.0520447 0.0994319 0.110548 -0.0248464 -0.086022 -0.0689663 0.100116 0.0823122 -0.106812 -0.0661512 0.0501272 0.0964838 0.00728642 -0.145467 0.169405 -0.0379935 0.0251493 -0.0178292 -0.0866579 -0.0813264 0.0411816 0.0630004 -0.0566718 -0.0286356 0.0250451 0.10586 0.0763311 -0.0287585 -0.0255766 -0.0472425 0.0074901 -0.0723384 -0.10659 0.0686259 -0.0212304 -0.0516941 -0.000726262 0.0869278 0.00153109 0.0362964 -0.0269838 0.00871963 0.0359912 0.195472 0.016919 -0.063836 0.072326 0.0580729 0.0606131 -0.0956286 -0.0849287 -0.122247 0.0278766 -0.0391216 0.00513435 0.0554581 -0.0614801 -0.0168931 0.109796 0.0160583 -0.0794717 0.0030283 0.0862777 -0.0698707 0.0229081 0.0182293 0.0261495 0.0408356 -0.0109635 -0.0356974 0.00124793 -0.100101 -0.111207 -0.0945764 -0.0438938 0.0244649 -0.124584 0.0650713 0.105208 0.0102959 0.0525505 -0.0736297 0.0136995 -0.188465 0.022399 0.00519498 0.14859 0.0329919 0.133148 0.0836258 -0.0308164 0.0511195 -0.122676 -0.104985 -0.0508653 -0.0352654 1.83241e-06 0.0755027 -0.0233976 -0.00601055 -0.0189515 -0.060984 -0.116279 -0.0264042 -0.0377326 0.032609 -0.104215 0.0732764 -0.11792 0.046156 -0.0227726 0.0248422 -0.0173651 0.0262661 0.0188332 0.0758428 -0.0753463 -0.159571 0.0482797 -0.0188181 0.0392762 0.00109535 0.0400518 0.124719 -0.0277945 -0.0881599 0.0271469 0.016051 0.0273469 -0.0123347 -0.107343 0.00233327 -0.0371319 0.0042801 -0.0623901 0.0151269 0.143759 -0.0215807 0.0293758 -0.0167751 -0.0951376 0.0331959 0.00121328 -0.125306 -0.129699 0.0398837 0.0171723 0.0524987 -0.0807056 -0.0145984 0.0197678 0.0551586 0.0688274 0.0978093 -0.0158335 0.0195399 -0.0671313 -0.0496371 -0.00656623 0.0468353 -0.0523471 -0.0362865 -0.0990535 0.0974052 0.0115404 -0.0967355 -0.0558006 -0.0731744 0.00680243 -0.0415139 0.0439361 0.0104947 -0.0933256 -0.0244022 -0.138303 0.0104459 -0.0891817 0.0408079 0.0147334
in -0.0777502 -0.026905 -0.0243059 -0.0466906 0.0640505 0.00664109 -0.0752998 -0.136925 0.0263561 0.0517994 0.0688789 0.0954071 -0.105203 -0.0404082 -0.0429214 -0.097863 -0.198435 0.0363452 -0.0329441 0.0324303 0.0350844 -0.0557832 0.103081 0.103966 -0.0260329 -0.0942897 -0.0699289 0.106832 0.0711815 -0.122255 -0.0754355 0.0408952 0.108234 0.0143187 -0.146355 0.166333 -0.0468816 0.0184507 -0.026017 -0.0752796 -0.083455 0.0626877 0.0619409 -0.0520507 -0.0282591 0.0271434 0.108262 0.0691025 -0.0223719 -0.0328544 -0.0480598 0.00362565 -0.086457 -0.118642 0.0653325 -0.0169717 -0.054913 0.00306074 0.0960421 0.0103036 0.0248365 -0.0274581 0.00499172 0.0283388 0.189267 0.00111361 -0.0505075 0.0634393 0.0621231 0.060464 -0.0999295 -0.0816237 -0.134587 0.0264404 -0.0356964 -0.00308293 0.0527421 -0.0642978 -0.000380952 0.113606 0.00836231 -0.0691343 -0.000343117 0.0735179 -0.066701 0.0318501 0.0185252 0.0238329 0.0444228 -0.0173384 -0.0325122 -0.0104677 -0.0944813 -0.111857 -0.0992793 -0.0443176 0.0093107 -0.124552 0.0604899 0.102814 0.0193443 0.0555862 -0.0782177 0.00733219 -0.181902 0.0291178 -5.91552e-05 0.146109 0.0255491 0.131324 0.0791393 -0.0395977 0.0497995 -0.140168 -0.107862 -0.0487428 -0.0306179 0.00421344 0.0686609 -0.016382 0.00767549 -0.0193488 -0.0557095 -0.115754 -0.0285662 -0.036473 0.0291976 -0.101171 0.064167 -0.111292 0.0482317 -0.0150307 0.0305711 -0.0148814 0.0267951 0.0194793 0.0763927 -0.0805491 -0.166302 0.0472832 -0.00615563 0.0484623 -0.00362218 0.0466822 0.116769 -0.0252106 -0.0819758 0.0225147 -0.00349214 0.0299337 -0.0151682 -0.109148 0.0116285 -0.0302563 0.00333101 -0.0555334 0.00713791 0.143794 -0.0236583 0.023321 -0.0234341 -0.0895951 0.0329523 0.00647622 -0.12618 -0.123559 0.039395 0.0269345 0.0436304 -0.0979407 -0.0111471 -0.010867 0.0541105 0.0675328 0.0992807 -0.0258247 0.0386169 -0.0571891 -0.0556876 0.020292 0.0522842 -0.0543138 -0.0250486 -0.103802 0.0979966 0.0273483 -0.088507 -0.053431 -0.0732695 0.0021525 -0.0453992 0.0543898 0.0158913 -0.0966688 -0.0220091 -0.126964 -0.00691989 -0.091933 0.0560649 0.00671463
to -0.0569891 -0.0283468 -0.0163785 -0.060984 0.0487829 -0.0394882 -0.0732556 -0.150814 0.0667586 0.0476707 0.0153695 0.0955946 -0.0941067 -0.0248454 -0.0153627 -0.0560982 -0.174667 0.0260803 -0.0861351 0.00952258 0.0873256 -0.0274713 0.109206 0.11133 -0.0479637 -0.0969608 -0.0548111 0.0800822 0.0716863 -0.14447 -0.094782 -0.00421972 0.128474 0.0389765 -0.135605 0.138511 -0.0514303 -0.000248957 -0.0613093 -0.0261047 -0.0650136 0.0988271 0.0647793 -0.0372676 -0.0241675 0.0349221 0.102219 0.0622565 0.00875816 -0.0430136 -0.0350488 -0.0262847 -0.13014 -0.154989 0.0460473 -0.0286094 -0.0535408 0.0187125 0.128641 0.0258973 -0.00971835 -0.0205789 0.00363332 0.00195272 0.156318 -0.0224634 -0.00762359 0.0458855 0.0732969 0.0827325 -0.0813941 -0.0791385 -0.144568 0.0274444 -0.0438739 -0.0269369 0.0488995 -0.089962 0.0397945 0.129515 -0.0174767 -0.0716325 0.0118747 0.0499313 -0.0318213 0.0790129 0.02315 0.0323477 0.0461921 -0.0388577 -0.0356834 -0.0260395 -0.0730973 -0.115571 -0.10191 -0.0473123 -0.0228716 -0.132777 0.0606739 0.0927248 0.0101897 0.0291743 -0.0855429 -0.00591737 -0.136074 0.0524045 -0.0170468 0.134361 0.0120331 0.118827 0.0506989 -0.0702763 0.051908 -0.144747 -0.107926 -0.010052 0.0010674 0.0106746 0.0564949 -0.000708849 0.0360152 -0.00173257 -0.042068 -0.122353 -0.0141884 -0.000507665 0.027723 -0.0744244 0.0410335 -0.0682778 0.041561 0.00866022 0.0298285 -0.0303576 0.0260831 -0.00801111 0.0690035 -0.105403 -0.178381 0.0523225 0.0294842 0.0461493 -0.0177512 0.067451 0.104643 -0.0195433 -0.0486961 0.0201688 -0.0221064 0.0421304 -0.0179751 -0.130373 0.0207737 0.0193755 0.019304 0.0065298 -0.0299586 0.115595 -0.0522139 -0.00595155 -0.0209287 -0.0506493 0.0435269 0.0313396 -0.12944 -0.119111 0.0201396 0.035731 0.036142 -0.137021 0.0188063 -0.0804 0.0602849 0.0414071 0.0874923 -0.0430422 0.0917868 -0.0543707 -0.0443739 0.0530616 0.0617625 -0.0725816 -0.0107765 -0.119945 0.0814546 0.0450427 -0.101355 -0.0288167 -0.068314 -0.00635459 -0.0495982 0.0758039 0.0137786 -0.0964887 -0.0259822 -0.0845501 -0.0861978 -0.0752669 0.0976378 -0.0136165
a 0.00442296 -0.00804664 0.000606028 -0.061929 0.0571862 -0.0647004 -0.059304 -0.14075 0.0934827 0.0160435 -0.0426581 0.0973017 -0.0810213 -0.00518637 0.0227258 -0.0295094 -0.126729 0.00871613 -0.0909399 -0.0126833 0.110456 0.0118475 0.103175 0.10153 -0.0686778 -0.117944 -0.0148355 0.0317474 0.0593023 -0.142559 -0.096682 -0.0769013 0.177668 0.0760859 -0.126708 0.100167 -0.0688947 -0.0161735 -0.0678808 0.0538551 -0.0178993 0.132316 0.0752606 -0.0588883 -0.00609587 0.0303356 0.0707452 0.0631824 0.0336649 -0.0337168 -0.0399264 -0.0441275 -0.167356 -0.204899 0.0327606 -0.0209454 -0.0224906 0.0396841 0.11242 0.0380906 -0.0237191 -0.0235397 0.0109334 -0.0466272 0.0583459 -0.0367634 0.0407929 0.00500782 0.0623051 0.0857958 -0.0366955 -0.0617744 -0.130018 0.0307585 -0.049897 -0.062712 0.0144971 -0.0808729 0.0492642 0.118352 -0.0325014 -0.059383 0.05288 0.0349915 0.0504734 0.110077 -0.00038782 0.0346477 0.0567453 -0.0589192 -0.0680265 -0.0361822 -0.0292273 -0.107199 -0.11402 -0.0522066 -0.046667 -0.118349 0.0701647 0.0613401 0.015606 -0.0111298 -0.08358 -0.0296249 -0.0929426 0.073345 -0.025435 0.1005 0.00202411 0.0666869 -0.0134884 -0.0702519 0.0298836 -0.153047 -0.0882081 0.0360349 0.0244486 -0.00580077 0.0243123 0.0424907 0.0551762 0.00620488 -0.0156681 -0.119024 -0.00493382 0.0433324 0.00957419 -0.0473915 -0.00597269 -0.0104726 0.00821521 0.0266623 0.0162288 -0.0445771 0.041931 -0.00842885 0.0486769 -0.132153 -0.166028 0.0573548 0.0499426 0.0356496 -0.0590025 0.0915393 0.0811483 -0.0428151 -0.00210907 0.0390399 -0.0247048 0.0664281 -0.0243683 -0.104799 0.0287021 0.0583301 0.0439571 0.0531639 -0.0475386 0.0970419 -0.0841895 -0.0430117 -0.0120595 0.0660362 0.0379426 0.0385239 -0.0646883 -0.0979569 -0.00939559 0.054939 0.026502 -0.148499 0.0661404 -0.142657 0.0839601 0.0188588 0.046312 -0.0499389 0.139638 -0.0832029 0.00541735 0.0724316 0.111581 -0.0800256 -0.0264539 -0.10034 0.0437592 0.0568953 -0.0813003 0.0155172 -0.0455024 -0.0135456 -0.0506389 0.0887784 0.00305873 -0.0775559 -0.00791121 -0.0212276 -0.166487 -0.0463391 0.114844 -0.0495897
one -0.112447 -0.0240981 -0.0390889 -0.00188937 0.030659 0.0809795 -0.045074 -0.0645437 -0.0665792 0.0698079 0.137929 0.0297835 -0.0812529 -0.046718 -0.0839654 -0.114153 -0.149236 0.0386794 0.0656982 0.0605523 -0.0774345 -0.0861491 0.0518549 0.0346834 0.0291513 -0.0171132 -0.0869686 0.123767 0.0470082 -0.0262673 -0.0156023 0.141342 -0.0279416 -0.0593535 -0.0725691 0.132929 0.00516084 0.0533388 0.0311815 -0.164102 -0.0863703 -0.0363124 0.015507 -0.0220935 -0.022894 0.010093 0.0804132 0.0585795 -0.084775 -0.0172808 -0.0302242 0.0561845 0.050613 0.0467547 0.0628333 -0.0102172 -0.0676081 -0.0450853 0.0176406 -0.0297613 0.0727253 -0.0219345 0.00420491 0.0886499 0.208533 0.0479131 -0.118684 0.0786554 0.0182768 -0.000159716 -0.102398 -0.0545007 -0.0424002 0.00746751 0.00219146 0.0603685 0.0689289 0.0054024 -0.0553701 0.0429154 0.0480418 -0.042861 -0.0402399 0.0715216 -0.13643 -0.0605998 0.0304861 -0.0151057 0.0109723 0.0425968 0.0265006 0.0325699 -0.103682 -0.0519461 -0.0169581 -0.0117311 0.066878 -0.0472719 0.0217221 0.0949512 0.00777276 0.0831129 -0.0172321 0.0403974 -0.163215 -0.0500197 0.0159489 0.0981813 0.0374738 0.121421 0.131368 0.0257443 0.0346406 -0.0425663 -0.0554731 -0.109612 -0.0768097 0.0118575 0.0789125 -0.0827289 -0.0753884 -0.0400903 -0.0541846 -0.0466247 -0.037225 -0.0907589 0.0371617 -0.108132 0.102362 -0.154901 0.06286 -0.053539 0.0406305 0.0227004 -0.00637657 0.0360311 0.0606489 0.0207696 -0.0629316 0.00866926 -0.083323 0.0339719 0.0570109 -0.0288533 0.0965132 0.000691865 -0.122312 -0.00231205 0.0234898 -0.0384964 -0.00164408 -0.0592693 -0.0122317 -0.104897 -0.0547292 -0.131388 0.0631781 0.121096 0.0504937 0.0786233 -0.0211797 -0.19427 0.0166581 -0.0263816 -0.110697 -0.079228 0.0603715 -0.0161003 0.0372406 0.00408258 -0.0894781 0.150477 0.00849543 0.0872288 0.0849485 0.0178474 -0.0950042 -0.0142051 -0.0693386 -0.0567335 -0.0412179 0.00986162 -0.0248914 -0.0369334 0.104685 -0.0207174 -0.0534308 -0.0915453 -0.0580119 0.0197834 -0.0197277 -0.0207958 0.022487 -0.0555173 -0.026429 -0.152996 0.169569 -0.0745974 -0.0448481 0.0714298
is -0.0188882 -0.00896168 0.00247956 -0.0605152 0.0545726 -0.052711 -0.0593251 -0.142991 0.0685818 0.0184674 -0.00874721 0.110438 -0.0821601 -0.0184491 0.0126373 -0.0532699 -0.156218 0.0215395 -0.0818694 -0.00839201 0.0989754 -0.0106235 0.113589 0.112391 -0.0534367 -0.11494 -0.0277857 0.0413889 0.0679278 -0.141 -0.0930025 -0.0574703 0.167365 0.0686582 -0.147594 0.125566 -0.0690388 -0.0166379 -0.0593659 0.0184238 -0.0264469 0.111931 0.0799874 -0.0655865 -0.0137216 0.0347523 0.0801429 0.0600573 0.0172311 -0.029493 -0.0436739 -0.04178 -0.149808 -0.201017 0.0441995 -0.0216329 -0.0247813 0.0445604 0.106598 0.0322981 -0.0150951 -0.0199733 -0.000322991 -0.0270362 0.0916799 -0.0280625 0.0310109 0.0173075 0.067238 0.0868969 -0.0426062 -0.0769305 -0.141388 0.0334909 -0.0526098 -0.0485589 0.0253806 -0.0765997 0.0277459 0.122845 -0.0262257 -0.059087 0.041503 0.0497636 0.0202932 0.0896835 0.00151692 0.0430362 0.0504984 -0.0560324 -0.0614096 -0.0355799 -0.0456 -0.114385 -0.115241 -0.0540765 -0.0326561 -0.134019 0.0738875 0.0750238 0.0164769 0.0047264 -0.0911156 -0.0208995 -0.117825 0.0735341 -0.0256108 0.120142 0.0108577 0.0887116 0.00139292 -0.0623158 0.0373147 -0.156376 -0.0896324 0.0177059 0.0170959 -0.00775607 0.0347879 0.0422645 0.0551191 -0.00501168 -0.0260825 -0.12193 -0.00677608 0.0362925 0.0189768 -0.0598613 0.0125316 -0.0299865 0.0119895 0.0183508 0.0146281 -0.0450122 0.0337705 0.00332117 0.0563853 -0.12719 -0.175329 0.0553256 0.0483707 0.0422932 -0.0493853 0.085881 0.0886452 -0.041584 -0.0283435 0.0412848 -0.0211715 0.0657913 -0.0194214 -0.0980905 0.0330388 0.0403919 0.0387002 0.0360424 -0.0475797 0.107423 -0.0741029 -0.0322038 -0.0146189 0.0318525 0.0417616 0.0284566 -0.0803114 -0.108145 0.00427799 0.0470664 0.0431626 -0.137505 0.0548095 -0.12169 0.0709787 0.033816 0.0566989 -0.0538363 0.12823 -0.0822095 -0.0133545 0.0589037 0.1028 -0.0840903 -0.0286259 -0.108578 0.0545029 0.0435827 -0.0895055 -0.00938767 -0.056214 -0.0119697 -0.0390439 0.0860528 -0.00296226 -0.0975125 -0.0133761 -0.0425927 -0.137071 -0.0599252 0.110271 -0.0322629
that -0.0301596 -0.0191188 -0.00400098 -0.0542284 0.0613282 -0.038525 -0.0691424 -0.147118 0.0721502 0.0351923 0.00115575 0.111215 -0.087936 -0.0241728 -0.000340836 -0.0595425 -0.169323 0.0258547 -0.0842918 0.00411299 0.0901482 -0.0132778 0.110934 0.119373 -0.055706 -0.115281 -0.036143 0.0611775 0.0752329 -0.147632 -0.0972231 -0.0308754 0.15918 0.0611377 -0.136129 0.130807 -0.0593859 -0.00892351 -0.0512516 0.00553241 -0.0428294 0.110978 0.0750348 -0.059642 -0.0204162 0.0268012 0.0895911 0.0657827 0.0219604 -0.0301695 -0.04274 -0.0370684 -0.147557 -0.185696 0.0492886 -0.0242623 -0.0302415 0.034059 0.106031 0.0267291 -0.00959979 -0.0244187 0.00785533 -0.0189073 0.115295 -0.0240251 0.0129213 0.0350488 0.0719081 0.0817578 -0.0615733 -0.0801963 -0.140623 0.030279 -0.0506297 -0.045562 0.0349691 -0.0826733 0.0243247 0.126864 -0.0224518 -0.0704286 0.0341779 0.0553816 -0.000851772 0.0855248 0.0019523 0.0408947 0.0576939 -0.0478186 -0.0593457 -0.0255554 -0.0560942 -0.110951 -0.108699 -0.0545431 -0.020923 -0.134313 0.0712992 0.0780342 0.0149073 0.0109482 -0.0849717 -0.0125694 -0.131827 0.0672909 -0.0212737 0.127305 0.0108442 0.0999108 0.0211018 -0.0660166 0.040518 -0.151718 -0.103906 0.0134935 0.00929313 -0.00278179 0.0415514 0.0209388 0.0384295 -0.00712684 -0.0300163 -0.125265 -0.00900681 0.0163862 0.0225727 -0.0641194 0.0195219 -0.0446805 0.0228595 0.00646709 0.0215944 -0.0422878 0.0364106 -0.00347581 0.0648813 -0.116385 -0.180761 0.0547573 0.0343129 0.035549 -0.0403767 0.0823451 0.10211 -0.0391642 -0.0352502 0.0375198 -0.00939512 0.056359 -0.0161234 -0.104489 0.0256592 0.0333044 0.0368749 0.0202931 -0.0335136 0.117336 -0.0727512 -0.0278798 -0.0170378 0.00236519 0.0388351 0.0340356 -0.0999791 -0.120746 0.00867878 0.0407851 0.0374384 -0.134198 0.0402424 -0.10079 0.0756893 0.0405121 0.072721 -0.0455037 0.108383 -0.0748861 -0.0173259 0.0548713 0.0900743 -0.0764473 -0.022717 -0.116199 0.067447 0.049505 -0.0891084 -0.0143063 -0.0551036 -0.0042341 -0.0512882 0.0825744 0.000672176 -0.0912115 -0.0147123 -0.0660579 -0.112487 -0.0658478 0.105043 -0.0351508
zero -0.114751 -0.0237242 -0.0380327 0.0128911 0.0143939 0.0908365 -0.0313717 -0.0261857 -0.0887477 0.0661556 0.139766 0.00133192 -0.0553912 -0.043236 -0.0866556 -0.10506 -0.113761 0.033831 0.0805404 0.0584716 -0.101872 -0.0822477 0.0277756 0.00508277 0.0428844 0.0130325 -0.0735627 0.11162 0.0273212 0.0149056 0.0138306 0.156646 -0.069753 -0.0803277 -0.035025 0.106101 0.0246194 0.0610366 0.0462791 -0.171614 -0.0824778 -0.0748924 -0.0049497 -0.0037562 -0.0243453 0.0072746 0.0557196 0.0429954 -0.0920673 -0.00903059 -0.0187209 0.0580779 0.0883222 0.0973769 0.0502768 -0.00420668 -0.062171 -0.0518318 -0.00554623 -0.0428125 0.0795985 -0.0111033 0.00371409 0.0944366 0.184342 0.0546189 -0.125148 0.0739323 0.00565727 -0.0262162 -0.0977381 -0.0343876 -0.0115616 -0.00297598 0.0150305 0.0697511 0.0622999 0.0281101 -0.0608569 0.0145817 0.0542713 -0.0269894 -0.0554763 0.0615962 -0.150708 -0.0834421 0.0295495 -0.0199474 -0.006605 0.0554581 0.042299 0.0408887 -0.0964969 -0.0264705 0.0130869 0.00118103 0.0778348 -0.0151176 0.00418938 0.0778394 0.00359735 0.0852884 0.0021785 0.0472263 -0.135128 -0.0670785 0.025807 0.0685679 0.0329815 0.106464 0.133828 0.0387872 0.0264103 -0.00282426 -0.0362417 -0.112255 -0.079481 0.0141361 0.0676917 -0.0906637 -0.0808794 -0.0379235 -0.0543638 -0.0128998 -0.0313235 -0.0989136 0.0352446 -0.0886187 0.10148 -0.146944 0.0649915 -0.0550121 0.0370569 0.0383155 -0.0222863 0.0342348 0.042194 0.0570175 -0.0125482 -0.00353968 -0.0900317 0.0269934 0.0691601 -0.0547367 0.0704777 0.0152802 -0.116683 -0.011083 0.0230461 -0.0517289 0.00145211 -0.037467 -0.017421 -0.110444 -0.0626644 -0.137701 0.0748906 0.0925339 0.0800728 0.0936995 -0.0155877 -0.200699 0.00589896 -0.0308634 -0.0837677 -0.0487582 0.0627826 -0.0327919 0.0255719 0.0427371 -0.102623 0.180245 -0.0154245 0.0779559 0.0662973 0.0265072 -0.128537 0.00935596 -0.0721002 -0.0690974 -0.0708587 0.0277904 -0.0127155 -0.00581153 0.0888701 -0.0334332 -0.0303488 -0.0933725 -0.0467812 0.0167523 -0.00745966 -0.0394428 0.0266074 -0.0300066 -0.0244196 -0.147208 0.215035 -0.0649023 -0.0748861 0.0884964
as -0.079425 -0.0288422 -0.0246403 -0.0517451 0.0545879 0.00568156 -0.078173 -0.145801 0.0214724 0.0599326 0.0650547 0.0853951 -0.110807 -0.0391883 -0.0325224 -0.0973685 -0.1924 0.037917 -0.0380436 0.0375429 0.0295097 -0.0537546 0.108977 0.0917626 -0.0347494 -0.0851133 -0.0623483 0.102912 0.0711087 -0.131144 -0.0853113 0.0424352 0.101362 0.0129406 -0.135131 0.162223 -0.0491424 0.0201569 -0.0200685 -0.0703715 -0.0857965 0.0693649 0.0656484 -0.0490284 -0.0231224 0.0366156 0.113831 0.0748735 -0.0318124 -0.0370795 -0.051965 0.0061245 -0.0812401 -0.119265 0.0571765 -0.0185007 -0.0557424 -0.00344553 0.0965815 0.0102691 0.0245742 -0.0399977 0.00735798 0.0269272 0.18689 -0.00381721 -0.0430346 0.0584555 0.0661142 0.0559926 -0.103521 -0.0838528 -0.132016 0.0268729 -0.0422757 -0.00476843 0.0495682 -0.0646227 -0.00656298 0.114194 0.000987353 -0.0657011 -0.00206393 0.0713356 -0.0775878 0.0386579 0.0179388 0.031455 0.037668 -0.0149644 -0.0278392 -0.00369257 -0.0891156 -0.11048 -0.0919115 -0.0431413 0.01124 -0.118236 0.0628797 0.105124 0.00908103 0.0588391 -0.076317 0.0030217 -0.17563 0.0233911 0.0051954 0.14508 0.0216073 0.139194 0.0814913 -0.0448767 0.0391941 -0.140944 -0.105899 -0.0485298 -0.0231569 0.00995413 0.0729955 -0.0248616 0.000990313 -0.0218049 -0.0509665 -0.116965 -0.023406 -0.0357096 0.037401 -0.10506 0.0710546 -0.114407 0.0504948 -0.0215298 0.0409494 -0.0160628 0.0188043 0.0096635 0.0732175 -0.0800283 -0.1605 0.055623 -0.0123176 0.0485106 0.00209114 0.0428651 0.122022 -0.0238266 -0.0897656 0.0183658 0.00121773 0.0253007 -0.0186551 -0.120128 0.0167113 -0.0244722 -0.00147054 -0.059869 0.00156087 0.140672 -0.0294691 0.0311622 -0.0215839 -0.0888777 0.0440954 0.0126571 -0.124009 -0.120967 0.0357233 0.0277474 0.0452132 -0.106208 -0.0137785 -0.010717 0.0584801 0.073944 0.106114 -0.0187416 0.0309082 -0.0600034 -0.0543989 0.0175496 0.0455479 -0.0421391 -0.0232416 -0.110531 0.105008 0.0235403 -0.0924046 -0.0496243 -0.0733176 0.00593576 -0.0553224 0.0559574 0.0160946 -0.0959144 -0.0315875 -0.120826 -0.00967317 -0.0831474 0.0498209 0.00690505
nine -0.113898 -0.0228213 -0.0403534 0.0122937 0.0220452 0.0886801 -0.0349263 -0.035362 -0.0765482 0.0631757 0.146108 0.00979562 -0.0668359 -0.0458589 -0.0867782 -0.106754 -0.123304 0.0361321 0.0783757 0.0647938 -0.0954009 -0.0848493 0.0358106 0.0161146 0.0379173 0.00323222 -0.0798928 0.115414 0.0342248 0.00189781 0.00777053 0.152913 -0.0570252 -0.0745009 -0.0529585 0.115344 0.0190306 0.0573029 0.0411644 -0.169732 -0.0854688 -0.0623268 0.00192412 -0.0081521 -0.0202949 0.00662125 0.066739 0.0486772 -0.0893702 -0.010751 -0.0258025 0.0608596 0.0791775 0.0803898 0.0577815 -0.00608103 -0.0597879 -0.0521498 -0.000650375 -0.0339047 0.0758243 -0.016695 0.00320908 0.0924196 0.199451 0.0529351 -0.127186 0.0719835 0.00609337 -0.0162148 -0.095384 -0.0418456 -0.0216855 -0.000886714 0.0114322 0.067557 0.061351 0.0181498 -0.059645 0.0224895 0.0543529 -0.0308979 -0.048784 0.066837 -0.145439 -0.0773284 0.0292534 -0.0198204 -0.00175654 0.0514363 0.0379344 0.0376713 -0.0966568 -0.0328606 0.000664042 -0.00449716 0.0755257 -0.0249207 0.00755473 0.0829848 0.00386092 0.0831333 -0.000617953 0.045885 -0.148402 -0.0593407 0.0259313 0.0788519 0.0368159 0.109394 0.132527 0.0347497 0.0276064 -0.0137525 -0.0411321 -0.112434 -0.0803203 0.0130515 0.0764884 -0.0875385 -0.0777774 -0.0398431 -0.055456 -0.0240521 -0.0352175 -0.0994995 0.034847 -0.0980406 0.102102 -0.151087 0.0639019 -0.0538704 0.0368701 0.02964 -0.0142989 0.0370631 0.0504877 0.0418809 -0.0345342 -0.00036898 -0.0900553 0.0330218 0.0650551 -0.044386 0.0803219 0.00831294 -0.120524 -0.00885983 0.022211 -0.0480478 0.000185012 -0.0430304 -0.0180448 -0.113332 -0.05981 -0.138879 0.0750284 0.0999033 0.0678351 0.0872671 -0.017555 -0.202151 0.00865818 -0.032436 -0.0985583 -0.0583527 0.0605702 -0.0268863 0.0296388 0.0269193 -0.0999133 0.171381 -0.00971605 0.078964 0.0747593 0.0351424 -0.117613 0.00222727 -0.0719007 -0.0693877 -0.061655 0.0235609 -0.0185384 -0.0190852 0.0932705 -0.0284941 -0.0391287 -0.0932609 -0.0510004 0.0185314 -0.0121084 -0.03641 0.0243448 -0.0384208 -0.0212407 -0.151269 0.193605 -0.0625703 -0.0647789 0.0830174
s -0.0837843 -0.0282 -0.0317343 -0.0464175 0.0586215 0.0130438 -0.0758496 -0.131309 0.0207326 0.0562493 0.0798209 0.091089 -0.113552 -0.0430634 -0.0454291 -0.0942882 -0.192409 0.0400582 -0.0261867 0.0415069 0.0240946 -0.0545705 0.102036 0.10271 -0.0160361 -0.0850644 -0.0767128 0.116318 0.0741508 -0.119757 -0.0740752 0.0546031 0.0838069 -0.00387506 -0.145854 0.163708 -0.0385779 0.0249506 -0.0212713 -0.0952793 -0.0893278 0.0571181 0.0575243 -0.0435899 -0.0243015 0.0265167 0.106971 0.0758663 -0.0349315 -0.025494 -0.0451575 0.0132341 -0.0655059 -0.0985452 0.0656125 -0.0225248 -0.0637838 -0.0120856 0.093108 0.0114287 0.0256005 -0.030163 -0.00119526 0.0404191 0.201858 0.00701584 -0.0631283 0.0679683 0.0612043 0.063071 -0.0966444 -0.0847734 -0.127083 0.0258026 -0.0362162 0.00841903 0.062563 -0.0663984 -0.00303363 0.11556 0.00897345 -0.0714834 -0.00106449 0.0765506 -0.0744772 0.0238285 0.0337861 0.0175306 0.0380425 -0.0140564 -0.0183966 -0.00309102 -0.096456 -0.105487 -0.0842848 -0.0442685 0.0134486 -0.117103 0.0531554 0.103645 0.012778 0.0543584 -0.0699204 0.0138095 -0.179106 0.0193708 -0.00268265 0.146156 0.0288139 0.130283 0.0909665 -0.0271729 0.0496466 -0.121876 -0.1038 -0.0518829 -0.0300674 0.00905034 0.0829983 -0.036788 -0.00840498 -0.0179106 -0.0541157 -0.109307 -0.0282051 -0.0461415 0.0361223 -0.108899 0.0699795 -0.122704 0.0499337 -0.0166001 0.0379185 -0.0133861 0.0254012 0.0182064 0.0791852 -0.0733615 -0.159463 0.0489653 -0.0195992 0.0503517 0.00753544 0.0403439 0.120499 -0.0164621 -0.0944741 0.0167696 3.46951e-05 0.0157829 -0.0179201 -0.114626 0.00803937 -0.0381088 -0.0105108 -0.0702488 0.0130351 0.142421 -0.0142284 0.0245789 -0.0246957 -0.110261 0.0375974 0.00669692 -0.139525 -0.120733 0.0379963 0.0229902 0.0474137 -0.0936573 -0.0232369 0.00993012 0.0538501 0.068411 0.102852 -0.0119756 0.0237733 -0.0502666 -0.0598548 0.00293039 0.0333361 -0.0405012 -0.0308486 -0.103802 0.103591 0.0178685 -0.0991003 -0.0571877 -0.0775326 -0.0019278 -0.0472809 0.0453425 0.0164084 -0.0891537 -0.0277083 -0.128299 0.00630392 -0.0831588 0.0472936 0.0138412
lincoln -0.100902 -0.0244281 -0.0322848 -0.0100883 0.0409306 0.0670763 -0.0544502 -0.0808579 -0.030755 0.0724985 0.130533 0.0609005 -0.0933758 -0.0542007 -0.0802809 -0.121763 -0.171968 0.0553788 0.0558312 0.0598541 -0.0399644 -0.0739204 0.0674463 0.0801059 0.0189869 -0.0295273 -0.0892862 0.113474 0.0691777 -0.0597886 -0.0297414 0.123891 -0.0037691 -0.052031 -0.0964715 0.131325 0.000659621 0.0431865 0.0177805 -0.140446 -0.0960174 -0.0214863 0.0237357 -0.0399759 -0.0166353 0.00063625 0.08948 0.0692862 -0.0731827 -0.0138336 -0.0449203 0.0475757 0.0163333 -0.000378353 0.06528 -0.0109402 -0.0613737 -0.0307056 0.042171 -0.0146595 0.0659429 -0.0189309 -0.00286288 0.0825731 0.219847 0.0407528 -0.112999 0.096977 0.0315471 0.0263948 -0.105163 -0.0804413 -0.0584146 0.0154247 -0.0139451 0.0457507 0.069522 -0.0325224 -0.0501584 0.0731242 0.0410589 -0.0659293 -0.0345157 0.0919399 -0.120428 -0.0417248 0.0355307 -0.00739815 0.0158382 0.0256459 0.00815106 0.0163357 -0.0996931 -0.0671472 -0.0348632 -0.021589 0.0659865 -0.070469 0.033513 0.107166 0.00349022 0.0763474 -0.0307393 0.0474497 -0.173718 -0.0295936 0.00655008 0.113708 0.0387444 0.124538 0.127121 0.0108805 0.0560259 -0.0502563 -0.0766769 -0.0922028 -0.0675626 -0.00335381 0.0958596 -0.0687483 -0.0525814 -0.030546 -0.0697078 -0.0718616 -0.0497094 -0.0875699 0.0400877 -0.110048 0.0955981 -0.1478 0.068516 -0.0455082 0.0233424 0.0230081 -0.000177349 0.0373054 0.0651628 -0.00731405 -0.0968868 0.0287367 -0.0726997 0.0414467 0.0440938 -0.00899801 0.108635 -0.00534967 -0.117943 -0.0042653 0.0148236 -0.0295512 -0.0087449 -0.0742558 -0.0181174 -0.0970298 -0.0346874 -0.123448 0.0493304 0.125151 0.0289312 0.0638929 -0.0210824 -0.169746 0.0125346 -0.025308 -0.117695 -0.103118 0.0596488 0.0017585 0.0411611 -0.0144446 -0.0827505 0.111842 0.0210952 0.07263 0.0964565 0.00421925 -0.0817612 -0.0254732 -0.0754078 -0.0472609 -0.0258223 -0.0100264 -0.033322 -0.054816 0.102353 -0.0286758 -0.0850089 -0.0926768 -0.0684855 0.00618468 -0.0288216 0.00238267 0.000780568 -0.0581915 -0.0241419 -0.171507 0.135647 -0.073946 -0.02535 0.0553501
by -0.101924 -0.0288703 -0.0274834 -0.0273006 0.0460431 0.0470188 -0.0626357 -0.111703 -0.0194539 0.0681918 0.108837 0.0694446 -0.10634 -0.046741 -0.0713109 -0.112171 -0.190461 0.0512207 0.0178886 0.0501318 -0.0205894 -0.0761014 0.0941501 0.0845038 0.000985722 -0.0583311 -0.0867606 0.121425 0.0723711 -0.08311 -0.0484811 0.103334 0.039134 -0.0250103 -0.118069 0.156156 -0.021167 0.0453825 -0.0012063 -0.127937 -0.0918353 0.0136462 0.0428429 -0.0415698 -0.022461 0.0138401 0.0952376 0.0725901 -0.0607499 -0.0220069 -0.0432579 0.0300589 -0.0152298 -0.040249 0.0659488 -0.0185248 -0.0644013 -0.0190398 0.0649475 -0.00696094 0.0516245 -0.0236273 0.00186107 0.0633566 0.217761 0.0275313 -0.096294 0.08381 0.0458868 0.0414637 -0.107762 -0.0817001 -0.0925089 0.0205626 -0.022604 0.0315611 0.0720201 -0.0416805 -0.0355996 0.0892367 0.0272239 -0.0673927 -0.0229237 0.085913 -0.109533 -0.0108741 0.0337422 0.00887755 0.0225339 0.0112209 -0.00745905 0.00991692 -0.101991 -0.0933965 -0.0552454 -0.0321886 0.0444857 -0.0927323 0.0453065 0.108988 0.0076399 0.0720211 -0.0474096 0.0306592 -0.184819 -0.0170297 -0.000775911 0.13485 0.0382702 0.13447 0.11779 -0.00542673 0.0514555 -0.0894076 -0.0895011 -0.0820312 -0.057183 0.00355958 0.084183 -0.0551492 -0.0416039 -0.0286797 -0.0635098 -0.0880415 -0.0345518 -0.0678545 0.036433 -0.114622 0.0901568 -0.137674 0.0628664 -0.0352442 0.0340316 0.0118265 0.00481264 0.0231273 0.0741373 -0.0330848 -0.122897 0.0344223 -0.0523279 0.0447272 0.0277101 0.0113498 0.116426 -0.00937143 -0.118165 0.00781293 0.00453664 -0.0105812 -0.0149097 -0.0974112 -0.00208806 -0.0689709 -0.0288278 -0.0956013 0.031681 0.140159 0.00891698 0.0520936 -0.0187771 -0.152019 0.0253958 -0.00672216 -0.127213 -0.113613 0.0532413 0.00543777 0.0430199 -0.0507305 -0.0574832 0.076397 0.0315454 0.0811887 0.100418 -0.00438252 -0.038992 -0.0436003 -0.0676046 -0.0284464 0.00562934 -0.0250488 -0.0248555 -0.0783576 0.113006 -0.00580448 -0.0923121 -0.079842 -0.0743432 0.00630925 -0.035028 0.0243214 0.0124323 -0.0760075 -0.0316714 -0.155166 0.0950826 -0.0863686 0.00538547 0.0456904
eight -0.112264 -0.0267385 -0.0372793 0.00067939 0.0304059 0.0841399 -0.0435761 -0.0472098 -0.070456 0.0676998 0.140125 0.0212919 -0.0755977 -0.0471806 -0.0842682 -0.110226 -0.135908 0.0357624 0.0720347 0.0622511 -0.0879721 -0.0864129 0.0412957 0.0259573 0.0356579 -0.00826195 -0.0843046 0.121438 0.0394865 -0.0138488 -0.00318714 0.142658 -0.0407681 -0.0729642 -0.0659327 0.122169 0.0113531 0.0585503 0.03162 -0.164474 -0.0884691 -0.0465739 0.00547398 -0.0117055 -0.0226514 0.0110907 0.0712634 0.0548966 -0.0887727 -0.0144131 -0.0283726 0.0609974 0.0687282 0.0634782 0.0615906 -0.00650357 -0.06462 -0.0534193 0.0107678 -0.0306883 0.0737664 -0.0224846 0.0042142 0.0908741 0.206427 0.0494101 -0.124801 0.0760988 0.0126992 -0.0073921 -0.0997485 -0.0507968 -0.0331883 0.00572407 0.0106619 0.0636101 0.063359 0.00571211 -0.0552874 0.03484 0.0469519 -0.0342859 -0.0422589 0.0666233 -0.141167 -0.0677662 0.035104 -0.0183463 0.00763094 0.0421573 0.0351921 0.0341615 -0.103697 -0.0461153 -0.0100507 -0.00900477 0.0672388 -0.0367067 0.0116072 0.0911056 0.0057793 0.0835769 -0.012663 0.0438191 -0.155204 -0.0554465 0.0208405 0.0881477 0.0358275 0.115588 0.129571 0.0303761 0.0321341 -0.0304738 -0.0522638 -0.111291 -0.076611 0.0116959 0.0790021 -0.0851861 -0.0725943 -0.0390104 -0.0579371 -0.0337806 -0.0395399 -0.0987639 0.0378808 -0.10599 0.0973156 -0.156735 0.0668607 -0.0528044 0.0375679 0.0286675 -0.00655989 0.0406316 0.0557952 0.0309111 -0.0485501 0.00390513 -0.0886395 0.0383946 0.0598096 -0.0343805 0.0856319 0.00457318 -0.120678 -0.00666691 0.0187635 -0.0428943 -0.00447706 -0.0516936 -0.0177878 -0.112047 -0.0584754 -0.141742 0.0667659 0.113017 0.0597795 0.0831221 -0.0210222 -0.198259 0.0148476 -0.0295795 -0.105521 -0.0675277 0.0585728 -0.0213499 0.0323363 0.0112604 -0.0981411 0.155463 -0.0030246 0.0850255 0.0826255 0.0198759 -0.104738 -0.00295975 -0.074519 -0.0598663 -0.0518557 0.0173103 -0.0219169 -0.0289343 0.099581 -0.0286945 -0.0477028 -0.0951135 -0.0589839 0.0149988 -0.0193287 -0.0312202 0.0265168 -0.0440267 -0.0253374 -0.152816 0.183024 -0.0714149 -0.0518872 0.0747286
or -0.0452605 -0.0314118 -0.0156212 -0.0683866 0.0582045 -0.0421552 -0.0784281 -0.144741 0.0697538 0.0430447 0.00790656 0.0995897 -0.0957503 -0.0212506 -0.00810441 -0.0506774 -0.167258 0.0251492 -0.0862183 0.012568 0.084336 -0.0235875 0.103832 0.106251 -0.0454674 -0.100193 -0.0492888 0.088754 0.0672892 -0.147913 -0.0969328 -0.0193017 0.135477 0.0345863 -0.134233 0.137502 -0.0612191 0.000894099 -0.0632332 -0.0182652 -0.0620569 0.111857 0.0679378 -0.0358835 -0.0212254 0.036639 0.101788 0.0614776 0.0124059 -0.0449764 -0.0357165 -0.0225759 -0.128232 -0.166398 0.0359614 -0.0229305 -0.0492926 0.0199623 0.121059 0.028866 -0.0145379 -0.0241351 -0.0022442 -0.00578305 0.14259 -0.0242571 -0.00370288 0.0383777 0.0703309 0.0833211 -0.0848624 -0.0783567 -0.149399 0.0324354 -0.0436775 -0.0275862 0.0412468 -0.0917266 0.0358088 0.127105 -0.0226481 -0.0732172 0.0189869 0.0492245 -0.0216738 0.0834435 0.0212395 0.0316921 0.0551853 -0.0378062 -0.0359444 -0.0349251 -0.0710798 -0.115939 -0.0999193 -0.0567205 -0.0344566 -0.13368 0.0596488 0.087416 0.0167568 0.029765 -0.0891433 -0.0136934 -0.131824 0.0519435 -0.0153116 0.136084 0.00746468 0.109865 0.0459805 -0.0686963 0.0532822 -0.14689 -0.110101 -0.00918414 0.00728278 0.00991057 0.0567665 0.00370477 0.038517 -0.00826999 -0.0418334 -0.120185 -0.0163438 -0.00473651 0.0284403 -0.078532 0.0347263 -0.0695858 0.0356667 0.0147574 0.0283916 -0.0270258 0.0264561 -0.00415847 0.0624169 -0.108957 -0.177532 0.059176 0.0331573 0.0484484 -0.0158513 0.0701385 0.101807 -0.0212128 -0.042128 0.0195042 -0.0235827 0.04527 -0.02295 -0.122751 0.0297491 0.0199924 0.0200239 -0.00514721 -0.0255869 0.121596 -0.0600311 -0.0157827 -0.0255679 -0.0330855 0.045893 0.0359869 -0.123122 -0.111316 0.0165187 0.0370904 0.0315984 -0.141034 0.0285545 -0.0925211 0.058888 0.0357046 0.0864792 -0.0391243 0.0937217 -0.0590248 -0.0397487 0.0643908 0.068963 -0.069556 -0.0132811 -0.115327 0.0830389 0.0376221 -0.0972108 -0.0223355 -0.0676036 -0.00415609 -0.0564551 0.0783534 0.0117198 -0.0962305 -0.0246879 -0.0841077 -0.0962433 -0.0692369 0.0982447 -0.0298707
two -0.113165 -0.0216174 -0.0367666 0.00156398 0.0311801 0.0845163 -0.0435597 -0.0591833 -0.0664931 0.0666188 0.14054 0.0308126 -0.0784004 -0.0518877 -0.0861236 -0.120828 -0.147757 0.0433837 0.0689381 0.0603512 -0.0792558 -0.0883448 0.0543501 0.0374507 0.0308483 -0.0160722 -0.0820185 0.115418 0.0471702 -0.0204629 -0.00619329 0.142065 -0.0259246 -0.062246 -0.0727269 0.133333 0.0067171 0.0541312 0.0307942 -0.160524 -0.0889937 -0.0468181 0.0146622 -0.0238971 -0.0243971 0.0111272 0.0727976 0.0584499 -0.0814426 -0.0154762 -0.0303412 0.0510152 0.0529814 0.0477999 0.0661543 -0.00873489 -0.0617152 -0.0392201 0.015774 -0.0316212 0.077878 -0.022041 0.00808301 0.0881728 0.210578 0.0504275 -0.116174 0.0795579 0.0205455 -0.000940881 -0.101371 -0.0553511 -0.0424204 0.00556417 0.00464415 0.0588269 0.065447 0.00581177 -0.0615202 0.0398579 0.0504937 -0.0410377 -0.041941 0.0779632 -0.13843 -0.0621091 0.0295674 -0.0137194 0.00427685 0.0424621 0.0221776 0.034576 -0.103226 -0.0530861 -0.0167959 -0.0116684 0.0746912 -0.0436707 0.0192509 0.0955052 0.00560415 0.0854953 -0.0150311 0.0432182 -0.163014 -0.0470025 0.0200158 0.0949435 0.0394803 0.120164 0.128161 0.027285 0.0384385 -0.0381763 -0.0571379 -0.107272 -0.0784656 0.00797939 0.0802026 -0.0823287 -0.0695025 -0.0405838 -0.0607974 -0.0436545 -0.0378825 -0.0905396 0.0386742 -0.110118 0.102999 -0.148314 0.0637144 -0.0530873 0.0397418 0.0269395 -0.0090643 0.0402769 0.0563967 0.0204274 -0.0604659 0.0071894 -0.0820541 0.0338561 0.0528707 -0.0322348 0.0950046 -0.00136757 -0.121351 -0.00312426 0.0174384 -0.036691 -0.00165196 -0.057039 -0.017062 -0.105128 -0.0491809 -0.131446 0.0662456 0.11965 0.056165 0.0778976 -0.0194193 -0.188406 0.0152217 -0.0266092 -0.101651 -0.078668 0.0627335 -0.018039 0.0349882 0.0160089 -0.0946455 0.150464 0.00156798 0.0828742 0.0825447 0.0195855 -0.101003 -0.0130426 -0.0724384 -0.0628561 -0.0400326 0.00559556 -0.0265014 -0.0319743 0.101988 -0.0279698 -0.0517591 -0.0942553 -0.0588109 0.0170723 -0.0173724 -0.0172555 0.0212832 -0.0513707 -0.021483 -0.15786 0.178327 -0.0761614 -0.0504155 0.0734026
was -0.0570363 -0.0179232 -0.015383 -0.0557203 0.0629857 -0.0153053 -0.070639 -0.146526 0.0455554 0.0421088 0.0383563 0.103772 -0.102165 -0.0369062 -0.0229391 -0.0822188 -0.188609 0.0416586 -0.0580832 0.0261819 0.0595196 -0.03961 0.105879 0.11361 -0.03518 -0.106435 -0.0651526 0.0885213 0.0770073 -0.138081 -0.084865 0.00735932 0.132306 0.0324689 -0.155472 0.155299 -0.0580816 0.00461104 -0.0444829 -0.0382014 -0.0635852 0.0926466 0.0705583 -0.0570986 -0.0231767 0.0329407 0.103356 0.0675258 -0.00247101 -0.0304078 -0.0512748 -0.00753254 -0.108688 -0.154363 0.0617325 -0.0215217 -0.0421555 0.0198859 0.103563 0.0186226 0.00689584 -0.0321985 0.00295261 0.0142805 0.165781 -0.0151092 -0.0232198 0.0520746 0.0677171 0.0721092 -0.0816636 -0.0861311 -0.13421 0.0285423 -0.0445633 -0.0189004 0.0469417 -0.0722872 0.00633247 0.123001 -0.00649056 -0.0738205 0.015919 0.0692536 -0.034971 0.0594777 0.0187244 0.0346319 0.0451789 -0.0336713 -0.0422757 -0.0124762 -0.0779502 -0.117947 -0.0990058 -0.0497139 -0.00550935 -0.1264 0.0614424 0.0920704 0.0137126 0.032685 -0.0840017 0.000365904 -0.157581 0.0487912 -0.0164781 0.144876 0.0207397 0.12229 0.0537306 -0.048539 0.0501282 -0.146945 -0.105918 -0.0227278 -0.013856 -0.000504723 0.0624701 -0.00229798 0.0224515 -0.0134764 -0.0418154 -0.117456 -0.018985 -0.0111465 0.0284963 -0.0911654 0.0506677 -0.0865191 0.0319907 -0.0060832 0.0282428 -0.0324903 0.0322502 0.00780703 0.0718341 -0.102443 -0.181084 0.0496723 0.0117701 0.0442778 -0.0240633 0.0660332 0.114638 -0.0291249 -0.0671319 0.0294393 -0.00227475 0.044252 -0.0181386 -0.112186 0.0187186 -0.00104872 0.0130868 -0.0272893 -0.00987158 0.135583 -0.049044 -0.00573364 -0.0192882 -0.0463632 0.0396074 0.0120513 -0.124124 -0.128199 0.0254034 0.0327007 0.0404841 -0.117881 0.00878468 -0.0519147 0.0636881 0.0539973 0.0906149 -0.0338299 0.0735528 -0.0642528 -0.0395098 0.0317932 0.0686483 -0.0679029 -0.0307526 -0.117491 0.0912432 0.0355488 -0.0943764 -0.0380598 -0.0700215 -0.00244907 -0.0495233 0.062718 0.0114406 -0.102704 -0.0224091 -0.0943367 -0.0666558 -0.0777759 0.0837829 -0.00962884
his -0.0211503 -0.0141466 -0.00181278 -0.0583961 0.0535827 -0.0505275 -0.0708014 -0.145125 0.08491 0.0187917 -0.023867 0.100498 -0.0864888 -0.0181635 0.0109253 -0.0397163 -0.143543 0.0220099 -0.0968259 -0.00735771 0.10604 -0.00658574 0.101676 0.110601 -0.0655403 -0.11296 -0.029132 0.0486867 0.0631757 -0.14367 -0.0905027 -0.0564462 0.164608 0.0669338 -0.134128 0.126099 -0.0651833 -0.0210485 -0.0614622 0.0284647 -0.0324648 0.114244 0.0734493 -0.0506949 -0.0187071 0.0375468 0.086376 0.0506311 0.0387409 -0.0362172 -0.0327476 -0.0385852 -0.15476 -0.19117 0.0323105 -0.023039 -0.0287752 0.0411428 0.109361 0.029232 -0.0150263 -0.0250896 0.00888546 -0.031659 0.0839744 -0.034434 0.0334276 0.023631 0.0691689 0.0890136 -0.0449344 -0.0711128 -0.142893 0.0253977 -0.0566931 -0.0485515 0.0272323 -0.0854195 0.0430394 0.123748 -0.0324535 -0.062667 0.0388144 0.0382276 0.0164713 0.0998121 0.00338772 0.0419764 0.055981 -0.0553043 -0.0576375 -0.0266133 -0.037607 -0.114406 -0.118915 -0.0509114 -0.0394252 -0.128707 0.0739216 0.0604372 0.0176302 0.00238465 -0.0838562 -0.0222497 -0.114154 0.0757014 -0.014941 0.117749 0.00241014 0.0846728 0.00786375 -0.0740311 0.0317674 -0.158652 -0.0948701 0.0251562 0.0204329 0.00246592 0.0319943 0.0392201 0.0594282 0.00329398 -0.0235736 -0.121055 -0.0104016 0.0296647 0.0107784 -0.0576723 0.00886506 -0.0250895 0.0210619 0.013438 0.0178622 -0.0466555 0.0381065 -0.0109237 0.0601207 -0.12425 -0.177846 0.0543408 0.0504082 0.0238159 -0.0564363 0.0841242 0.0911972 -0.0296933 -0.0133596 0.0348105 -0.0138616 0.0684674 -0.0155424 -0.111026 0.0237935 0.0432356 0.0440692 0.0336738 -0.0414173 0.106051 -0.0774936 -0.0360372 -0.0106212 0.0286811 0.0324617 0.0398752 -0.0881797 -0.106654 0.00611218 0.0489708 0.0303525 -0.139396 0.0569191 -0.124097 0.0762519 0.0278526 0.0623642 -0.0398201 0.128554 -0.0801729 -0.0162637 0.0663798 0.0995218 -0.0827887 -0.0115173 -0.117099 0.0536754 0.0595253 -0.0877704 0.00619403 -0.0488487 -0.00252471 -0.0476193 0.0840013 0.00393535 -0.088103 -0.0136626 -0.0405947 -0.14681 -0.0594745 0.117178 -0.0464506
for -0.0770538 -0.0287015 -0.0202847 -0.0504542 0.0604521 -0.00307354 -0.0727287 -0.142796 0.0364419 0.060328 0.0532388 0.0988212 -0.108858 -0.0418465 -0.0381236 -0.0938417 -0.201642 0.0393756 -0.0373638 0.0255775 0.050364 -0.0545836 0.109964 0.113078 -0.0282725 -0.0933482 -0.0723118 0.0983771 0.0736666 -0.124844 -0.0821492 0.030881 0.11116 0.013263 -0.136839 0.160946 -0.0483964 0.0158647 -0.0377975 -0.0590195 -0.0766504 0.0750462 0.0567384 -0.0534171 -0.0282613 0.0327218 0.10343 0.0742319 -0.0164644 -0.0357133 -0.0422908 -0.00712169 -0.0944453 -0.129262 0.0585476 -0.0243254 -0.0560319 0.0121934 0.0956047 0.0140354 0.0180871 -0.0289008 0.00728367 0.0189223 0.183327 -0.00279715 -0.0341492 0.0629256 0.0701937 0.0713715 -0.0996359 -0.0856725 -0.135481 0.024566 -0.0348867 -0.0104672 0.0536146 -0.0656291 0.00066265 0.117965 0.0019521 -0.0768334 0.00415501 0.0706351 -0.0656943 0.0467645 0.022743 0.0216857 0.0449325 -0.0145401 -0.035023 -0.00901128 -0.0861304 -0.107623 -0.0924036 -0.0454315 0.00275942 -0.123164 0.0619582 0.103948 0.0121881 0.0508567 -0.0733766 0.00690282 -0.169658 0.0358946 -0.00706559 0.139776 0.0257941 0.131692 0.0764713 -0.0485032 0.0544849 -0.141774 -0.100136 -0.036235 -0.0321791 0.00571192 0.0635838 -0.019768 0.0116362 -0.0222149 -0.0530405 -0.11752 -0.0251671 -0.0249894 0.0335183 -0.100633 0.0664 -0.102493 0.0521386 -0.00973837 0.0343271 -0.0157987 0.0200313 0.0081583 0.0766898 -0.0824658 -0.172253 0.0513669 -0.000871722 0.0443903 -0.00128419 0.0467905 0.122946 -0.0280827 -0.0737477 0.019972 -0.011285 0.0324283 -0.0209826 -0.114119 0.0132626 -0.0224566 0.00360148 -0.0366513 -0.00246795 0.139437 -0.0331375 0.0159146 -0.0190767 -0.0838378 0.03435 0.0184679 -0.12783 -0.127317 0.0368906 0.026888 0.0403132 -0.109409 -0.0059017 -0.0206482 0.0615437 0.0620961 0.0933993 -0.0258336 0.0463137 -0.0570458 -0.055644 0.0222602 0.0524812 -0.0588496 -0.0217116 -0.109748 0.0979572 0.0232925 -0.0994248 -0.0488209 -0.0753684 0.000153532 -0.049828 0.0591631 0.0112224 -0.0971215 -0.0217717 -0.121804 -0.0183101 -0.0903575 0.0621903 0.00271812
on -0.0722743 -0.0247341 -0.0198854 -0.0486069 0.0629211 0.00521916 -0.0768137 -0.139167 0.0314053 0.060478 0.0619902 0.0988726 -0.109535 -0.0386406 -0.0386206 -0.0950661 -0.19447 0.04477 -0.0297788 0.0330181 0.0403556 -0.049108 0.107445 0.113574 -0.0221376 -0.0918475 -0.0701844 0.104555 0.0750818 -0.128308 -0.0817686 0.0390493 0.103534 0.0103894 -0.142415 0.154456 -0.0453668 0.0143672 -0.0328456 -0.0676726 -0.0820947 0.071793 0.0586721 -0.0549273 -0.0199388 0.0231284 0.106808 0.077811 -0.0187251 -0.0317097 -0.0476865 0.00355179 -0.0864529 -0.118152 0.0622471 -0.0198064 -0.0554107 0.00351664 0.0968183 0.0138928 0.020704 -0.0300716 0.00596182 0.0264675 0.187596 6.20146e-05 -0.0461474 0.0625554 0.0660673 0.0665893 -0.0968218 -0.0910524 -0.132818 0.0267881 -0.0373343 0.000810121 0.0592343 -0.0726873 -0.000186834 0.121528 0.00300563 -0.0766106 0.0106392 0.0779963 -0.0534696 0.0387625 0.0250921 0.0199081 0.049222 -0.0164655 -0.0319648 -0.0141434 -0.0896579 -0.111975 -0.087353 -0.0487563 0.0103787 -0.121203 0.0597365 0.102746 0.0121222 0.0520128 -0.0709418 0.0088228 -0.171187 0.0226767 -0.0117331 0.138625 0.0266645 0.126152 0.0757823 -0.038705 0.0538514 -0.131056 -0.102162 -0.0456388 -0.027186 -0.00315762 0.0726606 -0.0227933 0.00306925 -0.0187914 -0.0561341 -0.116906 -0.0306512 -0.0324892 0.0364182 -0.10333 0.062752 -0.108759 0.0502672 -0.0116314 0.0292972 -0.0183035 0.0277598 0.0137321 0.072624 -0.0800852 -0.168929 0.0564736 -0.0105151 0.0457933 -0.00300714 0.0530814 0.125464 -0.0280236 -0.081705 0.0188167 -0.00545957 0.0253605 -0.0146011 -0.117492 0.011813 -0.0270042 0.002869 -0.0484697 0.00330147 0.144668 -0.0337315 0.0148596 -0.0238048 -0.0886597 0.0377082 0.0111342 -0.134681 -0.12694 0.0344443 0.0308096 0.0416157 -0.105168 -0.0134461 -0.0155489 0.0608117 0.0635773 0.101274 -0.0315391 0.0390073 -0.0601296 -0.0539598 0.0150116 0.0514194 -0.0538947 -0.0327669 -0.105824 0.100918 0.0234701 -0.101686 -0.0544688 -0.0727713 0.00136869 -0.0522178 0.0537823 0.00830123 -0.0934328 -0.0271589 -0.123543 -0.0170752 -0.0824135 0.0571063 0.00126517
with -0.0819153 -0.0224293 -0.0264133 -0.044022 0.0621104 0.00713667 -0.0791515 -0.137281 0.0166968 0.0566755 0.0730797 0.0955385 -0.102159 -0.0400022 -0.0381842 -0.097663 -0.199273 0.0330089 -0.0312011 0.0353055 0.0282964 -0.0575491 0.105855 0.0923198 -0.0212598 -0.0881156 -0.0712988 0.112586 0.0735319 -0.115963 -0.0847455 0.0468638 0.0872323 0.00416676 -0.132578 0.167236 -0.0396755 0.024856 -0.0193438 -0.082359 -0.082864 0.0649957 0.0568148 -0.0507634 -0.0228797 0.0308013 0.105992 0.0736843 -0.0264654 -0.0321464 -0.0475438 0.00186166 -0.078609 -0.113962 0.0635497 -0.0264475 -0.0515153 -0.0049812 0.0944248 0.00205989 0.0335059 -0.0270391 0.00573586 0.029789 0.192098 0.00210473 -0.0483918 0.0671871 0.061043 0.0666068 -0.106722 -0.0834244 -0.132396 0.0208 -0.0333793 -0.00355873 0.0620176 -0.0586361 -0.00599974 0.114813 0.00900599 -0.0749981 -0.00764434 0.0809374 -0.071128 0.0379866 0.0210173 0.0244739 0.0429718 -0.0154539 -0.0230445 -0.00873947 -0.092859 -0.10156 -0.084059 -0.0481876 0.0111348 -0.117909 0.057973 0.0998493 0.0102247 0.06405 -0.0658668 0.0123973 -0.18075 0.0176833 -0.00412288 0.146967 0.0358397 0.14085 0.0848978 -0.0397625 0.0472825 -0.136417 -0.104153 -0.0545056 -0.0322473 0.0111443 0.0785736 -0.0390609 -0.002362 -0.0328544 -0.0528466 -0.108582 -0.0304178 -0.0416884 0.041609 -0.0927819 0.0699494 -0.114802 0.0562585 -0.0164098 0.0343613 -0.0118691 0.0176506 0.0162782 0.073728 -0.0697856 -0.159517 0.0451612 -0.0210483 0.0483692 0.00372851 0.03872 0.116893 -0.0180282 -0.0879213 0.0229322 0.00253291 0.0239696 -0.0112684 -0.116847 0.0139735 -0.029402 -0.0054654 -0.0577737 0.0100509 0.143849 -0.0219135 0.0228849 -0.0295899 -0.0987508 0.0357344 0.0111014 -0.132759 -0.126879 0.0417794 0.0250409 0.0467854 -0.0997251 -0.0183101 0.00388921 0.0609777 0.0721994 0.105612 -0.0251922 0.0333723 -0.0469024 -0.0502864 0.0138035 0.045839 -0.0473558 -0.0212814 -0.105089 0.102891 0.0237402 -0.0904141 -0.060552 -0.0773631 0.00660749 -0.0462018 0.0441305 0.0194479 -0.0973949 -0.0266082 -0.138513 0.0103986 -0.0927987 0.0498331 0.0122801
six -0.110202 -0.0175952 -0.0351727 0.0125395 0.0250072 0.0903611 -0.0346197 -0.0375459 -0.0808575 0.0588385 0.14353 0.0129843 -0.0676155 -0.0503708 -0.0859246 -0.109186 -0.122483 0.0357841 0.0828486 0.0661298 -0.102432 -0.0888877 0.0382471 0.0145324 0.0374689 0.00028959 -0.081861 0.118913 0.0341441 -0.000164109 0.00169529 0.150293 -0.0560886 -0.0747792 -0.0614187 0.116664 0.0172133 0.0549043 0.0399965 -0.167273 -0.0782361 -0.0547888 0.00542639 -0.0150377 -0.0179599 0.0050461 0.0651084 0.0520575 -0.0891868 -0.0142327 -0.0256491 0.069396 0.0797837 0.0775444 0.0609235 -0.0103741 -0.0608592 -0.0540193 -0.00498351 -0.0334482 0.0801295 -0.0243632 0.0061422 0.0937966 0.199083 0.0526239 -0.126509 0.0721974 0.00731959 -0.0170968 -0.0911274 -0.0443693 -0.0197035 0.00220908 0.0142338 0.0672851 0.061092 0.0157676 -0.0649415 0.0249596 0.0518627 -0.0291133 -0.0452144 0.0688167 -0.141697 -0.0770418 0.0319873 -0.0239204 -0.00190331 0.0462995 0.0337301 0.0346187 -0.0978719 -0.0367193 -0.00173542 -0.00529276 0.0770254 -0.0233561 0.0116702 0.0876645 0.00946309 0.0838107 -0.0021331 0.0441048 -0.146782 -0.0622996 0.0202188 0.0802342 0.0386582 0.110144 0.12608 0.0428375 0.0265885 -0.0184315 -0.0397484 -0.115987 -0.0791886 0.0129757 0.0769706 -0.0878526 -0.0844301 -0.0384614 -0.051666 -0.0271209 -0.0386206 -0.0977985 0.0318977 -0.109248 0.0995794 -0.151355 0.0599547 -0.0588945 0.040167 0.0294836 -0.00942041 0.0418128 0.0522055 0.036846 -0.0369077 -0.00471041 -0.0911996 0.0287491 0.0580134 -0.0382207 0.0831568 0.00692331 -0.119367 -0.00618724 0.0271292 -0.0469233 0.00075308 -0.0411149 -0.0215466 -0.119785 -0.060026 -0.141023 0.0707497 0.10876 0.061193 0.0805583 -0.0203889 -0.195911 0.00971262 -0.0360169 -0.0980435 -0.0641434 0.062025 -0.0235789 0.0319502 0.0286809 -0.103521 0.169981 -0.0048681 0.08766 0.0755929 0.0250856 -0.116482 -0.000745412 -0.0667975 -0.0698766 -0.0563488 0.017594 -0.0247025 -0.0205268 0.09658 -0.0322287 -0.0387207 -0.0916959 -0.0490395 0.0175443 -0.0103147 -0.0327721 0.0184874 -0.0406433 -0.0247689 -0.14551 0.18899 -0.0651754 -0.0648101 0.0765656
he -0.0563813 -0.0192013 -0.0171458 -0.0531262 0.0581117 -0.0193687 -0.0772722 -0.147858 0.0578014 0.0428878 0.0334798 0.104185 -0.0993826 -0.0357487 -0.022039 -0.0760514 -0.188992 0.0450385 -0.0574719 0.0195489 0.0703253 -0.0322185 0.107933 0.121652 -0.0369893 -0.102255 -0.0612421 0.0861918 0.0723421 -0.140864 -0.0925911 0.00239554 0.123638 0.0362665 -0.144972 0.153002 -0.0521655 0.000343665 -0.0468981 -0.0376981 -0.0619983 0.0871857 0.0696999 -0.059154 -0.0189582 0.0251809 0.102701 0.06572 0.00297437 -0.0269006 -0.0514002 -0.0148295 -0.119152 -0.151808 0.0519003 -0.0273524 -0.0403017 0.015581 0.110706 0.0211189 0.00915143 -0.022103 0.0021577 0.0101676 0.160761 -0.0165718 -0.0149887 0.05991 0.0699716 0.0823346 -0.0792152 -0.0889277 -0.136996 0.0345652 -0.0516836 -0.0136125 0.0466318 -0.0906051 0.00883496 0.127675 -0.0109328 -0.075137 0.0152157 0.0666599 -0.0287295 0.0636794 0.0208014 0.0338021 0.0499506 -0.0305234 -0.0402842 -0.0182051 -0.0713761 -0.1146 -0.104396 -0.0461911 -0.013344 -0.134392 0.0661746 0.0879587 0.0108212 0.0340823 -0.084794 0.00722322 -0.155413 0.05044 -0.0181385 0.143411 0.0224386 0.116603 0.0545834 -0.0489369 0.0557854 -0.140074 -0.113221 -0.0171823 -0.00241807 -0.000324817 0.0612001 -0.00514525 0.0229365 -0.0121263 -0.051335 -0.115901 -0.0179034 -0.0123263 0.0306107 -0.0805664 0.0465468 -0.0832757 0.0343129 0.00280218 0.0294788 -0.0269861 0.0295114 0.00473204 0.07604 -0.104374 -0.179837 0.0599439 0.0168919 0.0373305 -0.0148547 0.0701773 0.111177 -0.0246479 -0.0633781 0.0226876 -0.0067358 0.0466428 -0.0124529 -0.115337 0.0132005 0.0029509 0.0176528 -0.0185292 -0.020426 0.131084 -0.0482921 -0.00683761 -0.0166055 -0.0445411 0.0340579 0.021133 -0.126042 -0.134386 0.0285017 0.0332442 0.04327 -0.115178 0.0169341 -0.0592575 0.0609521 0.0420679 0.0871594 -0.0471427 0.0714237 -0.0636484 -0.0444228 0.0303342 0.0740517 -0.0650485 -0.0296153 -0.117935 0.0861339 0.0282333 -0.102774 -0.0367391 -0.0685611 -0.00489773 -0.0479461 0.0736793 -0.000590118 -0.0942914 -0.0144246 -0.0984764 -0.0652829 -0.0776518 0.0791365 -0.0176732
three -0.112324 -0.0254178 -0.0344589 -0.0160001 0.0412933 0.0676639 -0.0531554 -0.083732 -0.0493125 0.0681941 0.124877 0.0450954 -0.0938837 -0.0465936 -0.0768378 -0.114369 -0.170271 0.0399558 0.0448766 0.0565873 -0.0600034 -0.0855713 0.0726868 0.0518159 0.0199861 -0.0331597 -0.0907179 0.129506 0.0554009 -0.0500494 -0.0330184 0.124825 0.00163509 -0.0453256 -0.0961171 0.145304 -0.0087961 0.0521786 0.0169324 -0.151311 -0.08942 -0.0115835 0.0276659 -0.0302533 -0.0237351 0.0166978 0.0914497 0.064758 -0.0736849 -0.0228505 -0.0377349 0.0481758 0.0235606 0.0103338 0.0678715 -0.0139271 -0.0649469 -0.0373506 0.0391354 -0.0235873 0.0618109 -0.0274994 0.00717411 0.0759675 0.216289 0.040511 -0.110043 0.0762149 0.0333692 0.0159494 -0.105608 -0.0648482 -0.0678917 0.0131867 -0.00262659 0.0478575 0.0701893 -0.0124929 -0.0453157 0.0651102 0.0391845 -0.0485799 -0.0270401 0.0774765 -0.126052 -0.0404085 0.0286882 -0.00780057 0.0195713 0.0267109 0.0185043 0.0251539 -0.106596 -0.0682226 -0.0349869 -0.0213869 0.0551156 -0.0643655 0.0329201 0.102151 0.00966126 0.0808403 -0.0292081 0.0365112 -0.175959 -0.0335123 0.00757702 0.114681 0.0381576 0.131602 0.125899 0.0153126 0.0388937 -0.0683891 -0.0726096 -0.102055 -0.0685754 0.0137044 0.0845054 -0.0757441 -0.0595388 -0.0409946 -0.0593203 -0.0658127 -0.0380493 -0.0839991 0.042718 -0.116985 0.0991966 -0.154832 0.0655677 -0.0498775 0.0435169 0.0159321 0.00120376 0.0310884 0.0673555 -0.00427279 -0.0944715 0.0180741 -0.075091 0.0401952 0.0439198 -0.013508 0.105797 -0.00635259 -0.117615 0.000135813 0.0147489 -0.0231364 -0.00932902 -0.0800888 -0.010111 -0.0956684 -0.0499363 -0.12098 0.0520869 0.130724 0.0360656 0.0663219 -0.0233536 -0.181352 0.0240078 -0.0209548 -0.124957 -0.0946976 0.0600161 -0.00686402 0.0389079 -0.019888 -0.0797537 0.118946 0.0208368 0.0883362 0.092616 0.00622368 -0.0661604 -0.0254286 -0.0701508 -0.0436577 -0.0206019 -0.00790899 -0.027717 -0.0541925 0.111148 -0.0131436 -0.0708952 -0.0919252 -0.0676751 0.0171624 -0.0291474 -0.00569401 0.0216613 -0.0708476 -0.0270162 -0.15624 0.137341 -0.0809908 -0.0244878 0.0629427
it -0.0268292 -0.0199484 0.000303978 -0.0524675 0.0580695 -0.0416086 -0.063403 -0.155271 0.0846187 0.0252798 -0.0122519 0.111824 -0.0876896 -0.0234439 0.00113812 -0.0521966 -0.16007 0.0356495 -0.0861323 0.00234425 0.102055 -0.00920696 0.11346 0.117021 -0.056665 -0.10977 -0.0400944 0.0488087 0.066583 -0.149416 -0.100435 -0.0417376 0.165666 0.0684121 -0.132088 0.121311 -0.0610605 -0.0141591 -0.0553942 0.0208918 -0.0385893 0.117801 0.0779097 -0.053289 -0.0244033 0.028755 0.0819788 0.060383 0.0304987 -0.023994 -0.0422838 -0.0412693 -0.148891 -0.192508 0.04129 -0.0242856 -0.0268485 0.0467718 0.10902 0.0272851 -0.00813229 -0.0258822 0.00954627 -0.0271414 0.101455 -0.023194 0.0219903 0.027722 0.0764751 0.0930488 -0.0559637 -0.0747816 -0.136802 0.0318414 -0.0507545 -0.0437592 0.0336792 -0.0900687 0.0341434 0.126124 -0.0271705 -0.0693116 0.0381446 0.0570561 0.00772567 0.0975123 0.00776214 0.0495179 0.0516646 -0.0530256 -0.0598285 -0.0294354 -0.0391361 -0.110696 -0.114198 -0.0488231 -0.0330138 -0.127211 0.0695054 0.0704521 0.0145828 0.00651403 -0.0859197 -0.00924524 -0.122759 0.0689991 -0.0251742 0.120236 0.00496414 0.0904974 0.0138496 -0.065938 0.0389746 -0.146459 -0.0964539 0.025561 0.0198058 -0.0106565 0.0420052 0.0322047 0.0449693 -0.0073018 -0.026213 -0.126265 -0.00505967 0.0190786 0.0192677 -0.0501578 0.010605 -0.0388912 0.023507 0.013177 0.0156399 -0.0428495 0.0366719 -0.00685052 0.0652191 -0.117953 -0.173498 0.0546521 0.0416339 0.035867 -0.0494831 0.0822992 0.0963064 -0.0373959 -0.0265312 0.035542 -0.0162072 0.0622525 -0.0185042 -0.105858 0.0298017 0.0417014 0.0392676 0.0326012 -0.043605 0.108103 -0.0787037 -0.0317878 -0.013636 0.0257399 0.0306594 0.0343554 -0.0934543 -0.118881 0.0125272 0.03877 0.0386211 -0.132359 0.0512363 -0.113402 0.0782082 0.0277813 0.068723 -0.0468504 0.109366 -0.0750506 -0.0149144 0.0502817 0.0956012 -0.0801656 -0.0222083 -0.11644 0.0689123 0.0459934 -0.092612 -0.00292087 -0.0521847 -0.0045558 -0.0475168 0.084082 -0.00893935 -0.0868483 -0.0117233 -0.0560934 -0.133355 -0.0601324 0.109545 -0.0398163
from -0.0435147 -0.0184053 -0.00624537 -0.0509812 0.061832 -0.018783 -0.0689937 -0.150448 0.0555085 0.0462752 0.0291873 0.106209 -0.101774 -0.0314674 -0.0240697 -0.0817073 -0.179248 0.0395298 -0.0629546 0.0111048 0.0709226 -0.0286468 0.119559 0.121256 -0.0410997 -0.103508 -0.0558771 0.0742512 0.078738 -0.141854 -0.0929167 0.00448835 0.135642 0.0386332 -0.14033 0.144206 -0.0545287 0.0069219 -0.0502352 -0.0238711 -0.0710049 0.0942613 0.0679631 -0.0548997 -0.0147387 0.0243046 0.100356 0.0710035 0.00165794 -0.0344529 -0.0409891 -0.021082 -0.127841 -0.158377 0.0560532 -0.0189147 -0.0510969 0.0261516 0.109038 0.0182315 0.00719597 -0.0253555 0.00607413 0.00831038 0.159888 -0.0128193 -0.0136072 0.0560589 0.0678039 0.0774916 -0.0788693 -0.0938584 -0.141356 0.0341145 -0.041912 -0.0292658 0.0513651 -0.0839504 0.0166512 0.123705 -0.00592163 -0.0810292 0.0192883 0.0695529 -0.0212044 0.07053 0.0161612 0.0312149 0.048574 -0.0292416 -0.043761 -0.025457 -0.0705538 -0.113901 -0.098293 -0.0467882 0.00101852 -0.12639 0.0692292 0.0922261 0.0103113 0.0310626 -0.0815477 0.000305133 -0.150488 0.0461924 -0.0154642 0.139145 0.0202268 0.119073 0.0495457 -0.0547949 0.0539363 -0.142211 -0.109598 -0.0137863 -0.0113088 -0.00484068 0.0632138 -0.00171619 0.025399 -0.00459379 -0.045833 -0.128614 -0.0239263 -0.00838077 0.0306192 -0.0881488 0.0407031 -0.0724996 0.0428052 -0.000139053 0.0223262 -0.0251394 0.0303438 0.000663721 0.0625174 -0.105632 -0.176911 0.0605818 0.0152349 0.0415396 -0.0221032 0.0654925 0.113719 -0.0338944 -0.0568302 0.0244548 -0.0158325 0.0370332 -0.0181075 -0.117094 0.0152221 0.0101607 0.0263624 -0.00776352 -0.025127 0.12983 -0.0536286 -0.0114614 -0.0148868 -0.0427535 0.0359945 0.02392 -0.1204 -0.131167 0.0205082 0.0352854 0.0343047 -0.12042 0.0174689 -0.0673191 0.0681542 0.0494945 0.0907479 -0.0417811 0.071132 -0.065047 -0.0372329 0.034023 0.0749575 -0.0676415 -0.0266225 -0.112085 0.0860098 0.0316543 -0.10475 -0.0339967 -0.0696942 -0.00791948 -0.0523136 0.0782111 0.00106635 -0.0923136 -0.0229472 -0.0971652 -0.0660891 -0.0723765 0.0872642 -0.0137723
an -0.0899203 -0.0356342 -0.0284542 -0.0560716 0.0536458 0.00284197 -0.0728238 -0.134685 0.0255053 0.0676214 0.0738761 0.0859902 -0.10284 -0.0347766 -0.0448207 -0.0943146 -0.190918 0.0369172 -0.0375376 0.0287093 0.0319944 -0.0468952 0.107089 0.0968145 -0.0145766 -0.0832678 -0.0822463 0.113518 0.0747853 -0.129308 -0.0817302 0.0611436 0.0856507 -0.00263628 -0.139958 0.164291 -0.0366738 0.0235477 -0.0274479 -0.0928388 -0.0857015 0.0651612 0.0560229 -0.0398613 -0.0279222 0.0248563 0.101398 0.0674588 -0.0391428 -0.034669 -0.0464378 0.00253417 -0.0789348 -0.101092 0.0640858 -0.0184839 -0.068841 -0.00620819 0.0958616 0.00516573 0.0215019 -0.0165556 0.00145 0.0351778 0.196802 -0.00075075 -0.0549139 0.0706041 0.0633032 0.0571833 -0.100118 -0.0837867 -0.129638 0.0233116 -0.0289029 0.00384305 0.0692187 -0.0586563 0.00680936 0.120094 0.0116004 -0.0785306 -0.00793662 0.0703322 -0.0717527 0.0369612 0.0248688 0.0213748 0.0471572 -0.00756774 -0.0109008 -0.00363954 -0.0987547 -0.103921 -0.0794649 -0.0403718 0.00882665 -0.118185 0.0484156 0.107139 0.0082921 0.0576865 -0.0683505 0.0177189 -0.173059 0.0114425 -0.012548 0.137133 0.017806 0.138049 0.0968649 -0.0416611 0.0495887 -0.129723 -0.102865 -0.0500251 -0.0289004 0.00515005 0.0763048 -0.0322992 -0.0016015 -0.0242959 -0.0469334 -0.102735 -0.0301515 -0.0401308 0.0395508 -0.096841 0.06894 -0.12585 0.0518775 -0.0148743 0.0376447 -0.0123431 0.0138765 0.00663319 0.0707551 -0.0706867 -0.157898 0.0503581 -0.0248431 0.0443487 0.0132996 0.0406835 0.115221 -0.00773237 -0.0895738 0.0143143 0.000233635 0.0117351 -0.0179087 -0.118423 0.0133858 -0.0327349 -0.0143969 -0.0556212 0.00896167 0.142352 -0.00900288 0.0244099 -0.0263991 -0.11868 0.0372346 0.00979704 -0.149014 -0.124724 0.0324667 0.0161405 0.0455083 -0.0996296 -0.0211672 -0.000647894 0.048249 0.068759 0.103028 -0.031842 0.0304745 -0.0503766 -0.0628324 0.0199029 0.0267929 -0.0460442 -0.0240185 -0.109023 0.103827 0.0273336 -0.096751 -0.0633841 -0.0817462 0.00162491 -0.0529734 0.0481565 0.0275245 -0.0969446 -0.0298004 -0.12448 0.00663077 -0.0817832 0.0580263 0.0154053
five -0.115057 -0.0272059 -0.0411203 -0.00206276 0.0322232 0.0794635 -0.0498383 -0.0625811 -0.0652455 0.0677825 0.136605 0.0281574 -0.0817853 -0.0457881 -0.0826942 -0.115466 -0.148324 0.034175 0.0603284 0.0602365 -0.080459 -0.0852311 0.0557539 0.0327403 0.0231151 -0.0200458 -0.0850706 0.124521 0.0458233 -0.0258922 -0.0112228 0.142395 -0.0241477 -0.0617266 -0.0770288 0.136687 0.00337545 0.0548258 0.0293357 -0.16143 -0.0892586 -0.0362109 0.0165997 -0.0211026 -0.0229169 0.0170836 0.0804072 0.0588501 -0.0815191 -0.0201505 -0.0299338 0.05242 0.0513197 0.0471535 0.0656586 -0.00952692 -0.0700464 -0.0471773 0.0191672 -0.0305325 0.0710562 -0.0257036 0.00722535 0.0878307 0.207254 0.0452976 -0.118016 0.0739316 0.0189206 -0.00382275 -0.101084 -0.0545332 -0.047689 0.00811143 0.00378443 0.0574717 0.0635777 0.00393009 -0.0510361 0.0422474 0.0462743 -0.043109 -0.0412568 0.0719276 -0.14261 -0.0580712 0.0311939 -0.011869 0.00887297 0.038079 0.026673 0.0336277 -0.104348 -0.0544315 -0.0222096 -0.0138998 0.0659799 -0.0482308 0.022119 0.0984839 0.00806118 0.0832042 -0.0213151 0.0378932 -0.165782 -0.0492242 0.0184416 0.0969473 0.0362624 0.12432 0.129881 0.0248658 0.0351273 -0.0446462 -0.0626789 -0.105323 -0.077011 0.0131918 0.080229 -0.0833174 -0.0694586 -0.0378059 -0.0559046 -0.0438045 -0.0340219 -0.0898574 0.0362687 -0.110647 0.101733 -0.155221 0.0690091 -0.0500853 0.0391978 0.0223764 -0.00630443 0.0372178 0.0593393 0.0164681 -0.0611758 0.00888944 -0.0789705 0.0400872 0.0545794 -0.0284749 0.0969206 0.000610582 -0.121675 -0.00144019 0.0213243 -0.0353727 -0.0068756 -0.0643088 -0.0142321 -0.100982 -0.0536825 -0.134608 0.066315 0.122318 0.0543428 0.0809577 -0.0201751 -0.191538 0.0189641 -0.0245941 -0.110855 -0.0787756 0.0612024 -0.0161121 0.0360573 0.0037654 -0.0901102 0.148251 0.00419537 0.0850083 0.0877097 0.0156879 -0.0934833 -0.0129492 -0.0731222 -0.0542822 -0.0458778 0.0105703 -0.0232958 -0.039537 0.103443 -0.0184069 -0.054488 -0.0932242 -0.0589102 0.0172976 -0.0217633 -0.0220215 0.0290284 -0.0525392 -0.0293479 -0.152945 0.168432 -0.0724551 -0.0432542 0.0719473
four -0.109694 -0.023164 -0.0365463 -0.00280097 0.0341018 0.0790868 -0.0513086 -0.0676507 -0.0604192 0.0694334 0.136429 0.0364673 -0.0845525 -0.0496757 -0.0815859 -0.118708 -0.156632 0.0392168 0.0591943 0.062277 -0.0728155 -0.0853784 0.0598128 0.044031 0.0273911 -0.024768 -0.0832427 0.122448 0.048529 -0.0321914 -0.0178369 0.135813 -0.0154113 -0.0597723 -0.0827076 0.137908 0.00357104 0.0557464 0.0231583 -0.159779 -0.090231 -0.031702 0.0205086 -0.0251182 -0.0228283 0.012238 0.0798958 0.0632225 -0.0813337 -0.0178848 -0.0329093 0.0497543 0.0441003 0.0364271 0.067316 -0.00731705 -0.064743 -0.0418597 0.0261157 -0.026434 0.0723783 -0.02302 0.00408758 0.0821348 0.211871 0.0462045 -0.115704 0.0793558 0.0217137 0.00391602 -0.105064 -0.0598016 -0.0524885 0.009084 0.0034748 0.0550418 0.0689305 -0.00186722 -0.0496883 0.050483 0.0482236 -0.0449063 -0.0375853 0.076851 -0.137917 -0.0569426 0.0285135 -0.0107258 0.0125658 0.0344836 0.0200742 0.0299927 -0.106989 -0.0599367 -0.0253192 -0.0163208 0.0684879 -0.054264 0.0219737 0.0949913 0.00641514 0.0841687 -0.0237193 0.0409384 -0.169606 -0.0407095 0.018466 0.102704 0.0362521 0.126865 0.12925 0.0180309 0.0385201 -0.0470618 -0.063469 -0.103866 -0.0739888 0.0117153 0.0797815 -0.0785795 -0.0669501 -0.0382784 -0.0608939 -0.053557 -0.0378627 -0.0894241 0.038603 -0.111494 0.099623 -0.15498 0.0688154 -0.0487597 0.0391042 0.0203476 -0.00625181 0.0364796 0.0604977 0.0144818 -0.0717724 0.0105995 -0.0764598 0.0372882 0.0505983 -0.0251239 0.100405 -0.00192557 -0.123353 -0.00147323 0.0189027 -0.0336215 -0.00277444 -0.0631362 -0.0152075 -0.102906 -0.0468703 -0.1296 0.0591238 0.124458 0.0489342 0.0786697 -0.0192339 -0.188995 0.0166947 -0.0253816 -0.110746 -0.0855783 0.0587965 -0.0113335 0.0359956 -0.0037456 -0.0879222 0.138033 0.00914826 0.0855374 0.0856307 0.0200611 -0.0853978 -0.0162083 -0.0733395 -0.0514709 -0.038763 0.00253858 -0.0249382 -0.0415293 0.106109 -0.0172678 -0.0579105 -0.091832 -0.0615216 0.0129604 -0.0246498 -0.0139173 0.0244549 -0.0569679 -0.0264182 -0.16027 0.161847 -0.0764341 -0.0373135 0.0703626
not -0.062997 -0.0256912 -0.020053 -0.0592824 0.0608312 -0.0181868 -0.0758634 -0.146151 0.0552583 0.0492658 0.0374515 0.106581 -0.100651 -0.0325468 -0.0274875 -0.0725936 -0.190564 0.0448847 -0.0603976 0.0172955 0.061092 -0.0419479 0.101257 0.115672 -0.0303932 -0.0912174 -0.0617888 0.0919945 0.0754311 -0.142752 -0.0927659 0.0141087 0.120023 0.0250475 -0.142783 0.150531 -0.0574126 0.00723958 -0.0474453 -0.041329 -0.0752095 0.0905771 0.0638322 -0.04854 -0.0295436 0.0281504 0.103806 0.0682971 -0.00970282 -0.035968 -0.0446821 -0.00968423 -0.114973 -0.148363 0.0482192 -0.0275371 -0.0469195 0.0185811 0.111979 0.0231642 0.00820753 -0.0220506 0.00108936 0.0147408 0.162361 -0.00945108 -0.0192153 0.0604653 0.0762368 0.0822543 -0.0931711 -0.0847868 -0.138025 0.0353502 -0.0408263 -0.0152189 0.051565 -0.0839457 0.00998643 0.125077 -0.0145864 -0.0768376 0.00720257 0.0664699 -0.0444451 0.0638222 0.0222899 0.0342196 0.0460276 -0.0289423 -0.0349124 -0.0191761 -0.075757 -0.116196 -0.0985449 -0.0534315 -0.00564132 -0.129148 0.0597236 0.0992131 0.0170956 0.0434197 -0.0800472 0.00740994 -0.159001 0.0369192 -0.0201473 0.14812 0.0199968 0.121887 0.0663951 -0.0537493 0.0569316 -0.133155 -0.105381 -0.0174063 -0.00281151 -0.00300933 0.0633162 -0.00758303 0.019921 -0.0115651 -0.0478147 -0.121064 -0.0220924 -0.0231826 0.0361848 -0.0857046 0.0494027 -0.0847594 0.0428144 -0.000819144 0.024355 -0.0248878 0.020497 -0.000588967 0.0707658 -0.0935991 -0.173512 0.0624335 0.0144282 0.0463878 -0.0134854 0.0662183 0.108849 -0.023948 -0.0674801 0.0211743 -0.0104048 0.0326692 -0.0148168 -0.111375 0.0139277 -0.00951301 0.0107111 -0.0244507 -0.0185391 0.125439 -0.0470037 -0.00182876 -0.0255635 -0.0539802 0.0395005 0.0188704 -0.126734 -0.13246 0.0253993 0.0284334 0.0359946 -0.115672 0.00334404 -0.0548668 0.0644235 0.0548987 0.0998549 -0.0382409 0.066299 -0.0558974 -0.0517773 0.0390432 0.0605539 -0.0662451 -0.0119577 -0.118899 0.0940266 0.0317538 -0.101776 -0.0397331 -0.0672298 -0.00849221 -0.0562856 0.0657957 0.00636695 -0.100115 -0.0233053 -0.107509 -0.0503292 -0.0811573 0.0801529 -0.0121658
autism -0.0569634 -0.0273966 -0.0175502 -0.0682992 0.0652108 -0.029154 -0.0778692 -0.147941 0.0461597 0.0490266 0.0295643 0.101572 -0.10785 -0.0306776 -0.0180596 -0.0703924 -0.184151 0.0306528 -0.0649297 0.0097222 0.0703848 -0.0367273 0.120684 0.111905 -0.0381979 -0.0994947 -0.0617164 0.0956414 0.0640141 -0.138161 -0.0969667 0.00132541 0.124638 0.0355564 -0.13844 0.150978 -0.0603221 0.00174651 -0.0444392 -0.0325141 -0.0575364 0.102424 0.0698398 -0.0530951 -0.01675 0.0323194 0.0932386 0.0697102 -0.00720112 -0.0323033 -0.0472925 -0.00873791 -0.112169 -0.159027 0.0511691 -0.0222792 -0.0405635 0.0181991 0.110276 0.0204649 0.00297447 -0.0247465 0.000773225 -0.000985686 0.156122 -0.0148288 -0.00846989 0.0449892 0.0741174 0.080481 -0.0915493 -0.0869964 -0.142626 0.0318384 -0.048748 -0.0215579 0.0434575 -0.082845 0.0155811 0.13329 -0.00820604 -0.0691708 0.0166068 0.0607212 -0.0253155 0.0717756 0.0173911 0.0281443 0.0514291 -0.0349811 -0.0286789 -0.019026 -0.0786091 -0.109841 -0.096273 -0.0564114 -0.0217838 -0.131808 0.0592127 0.0948906 0.0178416 0.032124 -0.0809108 -0.00179219 -0.146611 0.0453448 -0.0223203 0.133744 0.021005 0.121719 0.0498105 -0.0636993 0.0526526 -0.15149 -0.0981315 -0.0199047 -0.00899723 0.00031559 0.0603711 -0.00582728 0.0199424 -0.0220082 -0.0403188 -0.121864 -0.0199942 -0.00281353 0.0312702 -0.091683 0.0447285 -0.0740859 0.0379824 -0.00883276 0.0365799 -0.0245415 0.0315256 0.00161859 0.0702394 -0.100369 -0.178208 0.0564697 0.00996131 0.0500644 -0.018843 0.0662198 0.117883 -0.0298167 -0.0572217 0.0271837 -0.00924884 0.044292 -0.0155304 -0.117587 0.0272289 -0.00771202 0.00660421 -0.00855431 -0.0248619 0.132783 -0.0461505 -0.00688174 -0.0284537 -0.0379653 0.0408053 0.0290954 -0.114934 -0.12285 0.0171746 0.0349436 0.0480017 -0.130244 0.000206881 -0.0737815 0.0708638 0.0544258 0.092829 -0.0351448 0.0814873 -0.0577314 -0.038636 0.0520632 0.0742396 -0.0662742 -0.0165096 -0.10709 0.0844056 0.0379062 -0.0958662 -0.0397871 -0.0721893 -0.0127638 -0.0571592 0.0694726 0.0102518 -0.102047 -0.0205184 -0.0893613 -0.0618018 -0.0839659 0.0810414 -0.0166548
be -0.0286131 -0.0176667 -0.00130765 -0.0575833 0.0602859 -0.035478 -0.065254 -0.147863 0.0675495 0.0293036 0.00306994 0.107502 -0.0897 -0.024564 -0.000525317 -0.06133 -0.168512 0.0276253 -0.0851972 0.00260093 0.0794496 -0.0198156 0.111546 0.114865 -0.0544171 -0.111448 -0.0470542 0.0635835 0.0690072 -0.146059 -0.0955245 -0.0291379 0.157038 0.0605684 -0.138205 0.140603 -0.0594837 -0.00443398 -0.0586323 -0.00666492 -0.0517867 0.114249 0.0748178 -0.0547521 -0.0133853 0.0342869 0.0942389 0.0627673 0.0207766 -0.0317469 -0.0457052 -0.0285209 -0.136278 -0.181006 0.0443029 -0.0290514 -0.0325259 0.0348388 0.109777 0.0289135 -0.00374572 -0.0276433 0.00739099 -0.0164554 0.117306 -0.023808 0.0114798 0.0358624 0.0726473 0.0808377 -0.0551673 -0.0843978 -0.147408 0.0285189 -0.0524459 -0.0330599 0.0333248 -0.077832 0.0297272 0.122151 -0.0141844 -0.0664813 0.0295446 0.0570762 -0.00451573 0.0813381 0.00903492 0.0421487 0.0518309 -0.0414734 -0.0553501 -0.0273271 -0.0607605 -0.111373 -0.110807 -0.0465377 -0.0268374 -0.134542 0.0654275 0.0813198 0.0132356 0.0111828 -0.0849887 -0.0118071 -0.13799 0.0625332 -0.0252756 0.131163 0.0084514 0.104089 0.0243998 -0.0619202 0.0412912 -0.156689 -0.104792 0.00545154 0.00943338 0.0011994 0.0453978 0.0200487 0.041344 -0.00786147 -0.0281338 -0.124106 -0.00448625 0.0143954 0.0269909 -0.075728 0.0322145 -0.048147 0.0209423 0.00874712 0.0276554 -0.0457541 0.0357336 0.000166581 0.069978 -0.121134 -0.178157 0.0460538 0.0290471 0.0376927 -0.0415437 0.0803828 0.107741 -0.0365232 -0.037002 0.0293634 -0.00834772 0.0571843 -0.0148787 -0.106528 0.0271946 0.0282774 0.0319701 0.014096 -0.0312466 0.119291 -0.0631031 -0.0223398 -0.0120641 -0.00111454 0.0320812 0.0315457 -0.104801 -0.120607 0.00873702 0.0462467 0.0368555 -0.130848 0.0377502 -0.0994401 0.073841 0.0456186 0.0780281 -0.0427285 0.108327 -0.0750977 -0.0238683 0.047511 0.0926504 -0.0759074 -0.0212644 -0.11905 0.0677321 0.0546053 -0.0906736 -0.0131663 -0.0669258 -0.00456207 -0.0520648 0.0821855 0.00780423 -0.0947987 -0.0174159 -0.0681941 -0.112206 -0.0617733 0.10155 -0.0265603
at -0.041259 -0.017112 -0.00792688 -0.0554937 0.0599631 -0.0273382 -0.0727948 -0.147561 0.0591641 0.0358584 0.0172206 0.105501 -0.0967733 -0.0271549 -0.0122068 -0.0697121 -0.179132 0.0355064 -0.0648761 0.0127822 0.0765342 -0.027465 0.115205 0.11616 -0.0498727 -0.115018 -0.0515658 0.0690223 0.0741127 -0.138433 -0.0879465 -0.0172705 0.151497 0.0453487 -0.147905 0.148179 -0.0604936 -0.00660487 -0.0449678 -0.0118337 -0.0581918 0.0988642 0.0751314 -0.0578194 -0.0186719 0.031728 0.0945302 0.0676012 0.0118184 -0.030776 -0.0467098 -0.0232157 -0.131759 -0.173512 0.056852 -0.0233615 -0.0384256 0.0283044 0.105659 0.0264246 0.000889982 -0.0320864 0.00536899 -0.00611028 0.136203 -0.0178144 -0.00113668 0.0390873 0.068177 0.0832243 -0.071344 -0.0832031 -0.145482 0.0319709 -0.0494457 -0.0317761 0.0366357 -0.0830765 0.015237 0.123736 -0.0120322 -0.069049 0.028821 0.0643701 -0.0132243 0.0699788 0.0120939 0.0368234 0.0538197 -0.0429938 -0.0519128 -0.0217396 -0.0633373 -0.114078 -0.112765 -0.0509553 -0.01886 -0.128421 0.0716213 0.0844924 0.0154489 0.0223374 -0.0848589 -0.0060546 -0.150659 0.0595068 -0.0145415 0.134912 0.0191242 0.110554 0.0323933 -0.0529168 0.0413978 -0.155034 -0.103821 -0.00274081 -0.00515365 -0.00289053 0.05136 0.011705 0.0346482 -0.00694996 -0.0383401 -0.125641 -0.0146888 0.00361955 0.0207386 -0.0801685 0.0359037 -0.0631807 0.0315129 0.00250292 0.0241397 -0.03442 0.0380557 0.00795698 0.0713484 -0.112382 -0.18374 0.054758 0.0230968 0.0395292 -0.039818 0.0742245 0.109906 -0.0389786 -0.0509767 0.0293208 -0.00938088 0.0539614 -0.0187661 -0.111532 0.0187306 0.0106263 0.0241465 0.00262683 -0.0265806 0.124975 -0.0620254 -0.0173885 -0.0162897 -0.0144601 0.034341 0.0211549 -0.109334 -0.122856 0.0166815 0.0439372 0.040198 -0.126778 0.0244311 -0.0810835 0.0708555 0.0430667 0.0814623 -0.0340848 0.0954366 -0.0737181 -0.0326661 0.0410346 0.0833627 -0.0747915 -0.0258862 -0.114784 0.080391 0.0421868 -0.0966164 -0.0259066 -0.0640001 -0.00483376 -0.0480737 0.0729855 0.000649158 -0.0943859 -0.0168386 -0.0779756 -0.0940333 -0.0700766 0.0910723 -0.0210753
are -0.0583371 -0.0253276 -0.0182764 -0.0552991 0.0594664 -0.0243973 -0.0745477 -0.15011 0.0526962 0.0424877 0.0347039 0.105665 -0.0935978 -0.0289087 -0.0162973 -0.0718895 -0.185446 0.0358285 -0.0625035 0.0141664 0.069558 -0.0336886 0.112795 0.112494 -0.0391009 -0.101971 -0.058804 0.0805497 0.0662781 -0.142849 -0.0933508 -0.00359666 0.133179 0.03721 -0.148116 0.155887 -0.0536208 0.00210419 -0.0428622 -0.0309376 -0.0627555 0.0951976 0.0671694 -0.0517507 -0.0263488 0.0360839 0.100026 0.0617374 0.00192739 -0.0374182 -0.0455934 -0.0191886 -0.120302 -0.161069 0.0511314 -0.0233785 -0.0439404 0.0183456 0.104471 0.0256011 0.00804366 -0.021299 0.000571067 0.00108712 0.153673 -0.0159828 -0.00980438 0.0494584 0.0708089 0.0772985 -0.0798606 -0.0804913 -0.142197 0.03517 -0.0430501 -0.0208697 0.0402235 -0.077261 0.0174615 0.124736 -0.00750082 -0.0660729 0.0171924 0.0668583 -0.0303109 0.0659279 0.0152848 0.0361225 0.0518255 -0.0313654 -0.0418573 -0.0227122 -0.0752001 -0.115416 -0.109607 -0.0534179 -0.0159321 -0.132258 0.06681 0.0899387 0.0197546 0.0361586 -0.0828016 -0.00243297 -0.157108 0.0489284 -0.0126592 0.14341 0.0252626 0.122368 0.0487948 -0.0529483 0.046781 -0.150187 -0.104083 -0.017226 -0.00804521 0.00436845 0.0613503 0.00424365 0.0315252 -0.0168841 -0.0447171 -0.118042 -0.011856 -0.00118806 0.0300709 -0.0855571 0.0498607 -0.0741695 0.0333909 -0.00191681 0.0318682 -0.0259278 0.0262106 0.00760486 0.0724874 -0.107725 -0.178348 0.0529459 0.0199047 0.0469678 -0.0247498 0.0702308 0.11018 -0.023603 -0.0657446 0.0261824 -0.011209 0.0474079 -0.0183143 -0.111579 0.0264043 0.00381347 0.0189176 -0.0100271 -0.0270319 0.129457 -0.0479902 -0.00841678 -0.0199492 -0.0380836 0.0370919 0.0169687 -0.11973 -0.123597 0.0247172 0.0391131 0.0443704 -0.120785 0.0116538 -0.0671065 0.0653145 0.050717 0.0833113 -0.0391141 0.0818413 -0.0632785 -0.0418889 0.0444488 0.072469 -0.0691113 -0.0247043 -0.114797 0.0881991 0.0328304 -0.098293 -0.0343701 -0.0664228 -0.00211352 -0.0502266 0.0727954 0.00671534 -0.102512 -0.019082 -0.0924307 -0.072003 -0.0838613 0.0898969 -0.0152282
seven -0.109644 -0.0212018 -0.0404133 0.00530681 0.0282299 0.0818911 -0.043849 -0.053549 -0.0722734 0.0672152 0.138297 0.0157454 -0.07388 -0.0449987 -0.0833697 -0.111473 -0.136681 0.0350931 0.070607 0.0606579 -0.0919169 -0.0901358 0.0449168 0.0235118 0.0297251 -0.012429 -0.081409 0.119252 0.0395597 -0.011999 -0.00558285 0.148511 -0.0385275 -0.0648353 -0.0673412 0.125178 0.00912182 0.0580209 0.0340227 -0.160985 -0.0837393 -0.045122 0.00809481 -0.0166335 -0.0218757 0.0125297 0.0731922 0.0570104 -0.0879091 -0.0179199 -0.0298851 0.0620654 0.0636464 0.061004 0.0651933 -0.00668696 -0.0691326 -0.0470797 0.011246 -0.031716 0.0770267 -0.0254045 0.00786589 0.0899579 0.207514 0.0503869 -0.121415 0.0738535 0.0138659 -0.00898118 -0.101302 -0.0500668 -0.0384028 0.00344936 0.0091649 0.0598271 0.0622695 0.00914625 -0.0553181 0.0310742 0.0510765 -0.0344982 -0.0405733 0.0658774 -0.140459 -0.0642171 0.0297444 -0.0227411 0.00592882 0.0441585 0.0305483 0.0362305 -0.103755 -0.048033 -0.01113 -0.0109036 0.0703482 -0.0373143 0.0169666 0.0945035 0.00766104 0.0858406 -0.0121835 0.0376658 -0.155436 -0.053374 0.0261938 0.0897121 0.037317 0.11661 0.131213 0.0261668 0.0322253 -0.0306247 -0.0501197 -0.110405 -0.0807386 0.0121235 0.0759348 -0.0869614 -0.0771647 -0.0435444 -0.0568802 -0.0368465 -0.0378094 -0.0950463 0.0327017 -0.112121 0.100409 -0.157289 0.0641157 -0.0561973 0.0379565 0.0278492 -0.00843666 0.0377934 0.0571945 0.025912 -0.0470109 0.00354336 -0.0862595 0.0371714 0.0605861 -0.0346181 0.0914569 0.00242579 -0.119948 -0.00397788 0.0215366 -0.041217 -0.00336957 -0.054407 -0.0173621 -0.11145 -0.0560382 -0.136828 0.07377 0.115803 0.057042 0.0875027 -0.0209645 -0.196841 0.0132838 -0.0248241 -0.105402 -0.0678623 0.0639312 -0.0180015 0.030486 0.0146096 -0.0953339 0.157898 0.00205278 0.0862667 0.0795098 0.0324609 -0.103715 -0.00770857 -0.0704848 -0.0603803 -0.0491177 0.0144836 -0.0250142 -0.0266321 0.100254 -0.0217473 -0.0476709 -0.0935221 -0.0579075 0.0207784 -0.0185211 -0.0255923 0.0255359 -0.0471972 -0.0272867 -0.151347 0.17893 -0.0695121 -0.0552152 0.0794028
aristotle -0.0438498 -0.0177621 -0.0123853 -0.0524013 0.0623934 -0.0268427 -0.0761321 -0.146868 0.0667534 0.0346572 0.00968462 0.100864 -0.0920742 -0.035345 -0.0104479 -0.066965 -0.184452 0.0394158 -0.0653117 0.00364571 0.0814833 -0.0228298 0.117596 0.125538 -0.0502097 -0.109652 -0.047429 0.0772399 0.0774007 -0.14262 -0.101547 -0.0161172 0.138553 0.0493595 -0.143416 0.138941 -0.055504 -0.00548584 -0.0439798 -0.0146225 -0.0574082 0.107388 0.0660851 -0.0590775 -0.0150491 0.0216171 0.0916961 0.0754609 0.00962365 -0.030849 -0.0494152 -0.0283329 -0.129141 -0.173062 0.0472872 -0.02297 -0.0358257 0.0214336 0.105491 0.0259238 0.00888793 -0.0242051 0.00409149 -0.00459165 0.141445 -0.0121941 -0.00888658 0.055238 0.0748789 0.0876143 -0.0720514 -0.0812155 -0.147062 0.0342499 -0.0472711 -0.0336449 0.0394963 -0.089749 0.0115597 0.129827 -0.0190725 -0.0762933 0.0268763 0.070536 -0.0160887 0.0733353 0.0138964 0.0338955 0.0539246 -0.0431233 -0.0533466 -0.0299572 -0.0594327 -0.111184 -0.102485 -0.0508084 -0.0154295 -0.122588 0.0753625 0.0912473 0.0154887 0.0276628 -0.0812639 0.00268288 -0.145934 0.0493146 -0.0126344 0.129695 0.0150428 0.106266 0.0448537 -0.0578934 0.0525607 -0.148818 -0.112416 -0.000740911 0.000489063 -0.00669027 0.0580143 0.00808052 0.0334806 -0.0110377 -0.0457095 -0.123802 -0.0193082 0.00225766 0.0272857 -0.0779437 0.0350579 -0.0600099 0.0359452 -0.00314276 0.0262734 -0.0358167 0.0359788 0.00196338 0.0641709 -0.102248 -0.183385 0.0506134 0.0116931 0.0425581 -0.0370107 0.0775817 0.116519 -0.035466 -0.0500372 0.0324531 -0.00871879 0.0389944 -0.0201285 -0.112125 0.0179777 0.00710112 0.0254081 -0.0054438 -0.0256869 0.122451 -0.0606402 -0.0163866 -0.0221532 -0.0179042 0.0259675 0.0265807 -0.103606 -0.134187 0.0143189 0.0440465 0.0400739 -0.122327 0.0184253 -0.0840404 0.0769196 0.0396784 0.0789387 -0.0299577 0.0839738 -0.0738424 -0.037573 0.0325556 0.0864009 -0.065781 -0.0217648 -0.115351 0.0806783 0.0420262 -0.0996327 -0.034366 -0.0589257 -0.0083696 -0.0468012 0.0758439 -0.0021136 -0.0957 -0.0160077 -0.0890797 -0.0835038 -0.0778162 0.0896009 -0.0273183
which -0.0286041 -0.00896262 -0.00399971 -0.0566152 0.0620382 -0.0321227 -0.0629071 -0.145251 0.0661412 0.0322211 0.011541 0.10551 -0.0937885 -0.0268943 -0.00381645 -0.0653099 -0.172617 0.0364516 -0.0769939 0.00128568 0.0844518 -0.0182581 0.11849 0.12027 -0.0513796 -0.11656 -0.049943 0.0675802 0.0768698 -0.139886 -0.0920989 -0.0264601 0.149037 0.0497884 -0.144424 0.13998 -0.0637347 -0.00659373 -0.0541926 -0.00566478 -0.0553568 0.104126 0.083887 -0.0587211 -0.0138657 0.0288297 0.0914426 0.0715776 0.0146321 -0.0327695 -0.0450697 -0.0347353 -0.138215 -0.175796 0.0533602 -0.0236292 -0.0377297 0.0327368 0.114926 0.0264002 -0.00866119 -0.0224138 0.0100525 -0.00713984 0.13164 -0.0246149 0.000130015 0.0392386 0.077618 0.0786029 -0.0650095 -0.0804654 -0.139788 0.0318175 -0.0507791 -0.0327591 0.0384566 -0.0848171 0.026655 0.13481 -0.0200751 -0.0690989 0.0282839 0.0639509 -0.00624316 0.0809662 0.00994689 0.0340571 0.0504271 -0.0463244 -0.0497933 -0.0268668 -0.0599897 -0.118914 -0.10723 -0.0490098 -0.0246229 -0.130227 0.0669131 0.0797611 0.0114567 0.0222292 -0.0809275 -0.00518182 -0.141788 0.0647332 -0.0279742 0.132417 0.0119244 0.106321 0.0250095 -0.0568647 0.0515616 -0.156679 -0.0994079 -2.98934e-05 0.00314089 -0.00588673 0.0449147 0.014638 0.0344375 -0.00536462 -0.0337017 -0.116969 -0.0139145 0.0185128 0.025607 -0.0714788 0.0259082 -0.053867 0.0256619 0.00570078 0.026388 -0.0425009 0.0341359 -0.00225441 0.0686455 -0.11262 -0.183943 0.0538034 0.0280629 0.0391009 -0.0373275 0.0845787 0.108266 -0.0310228 -0.0470082 0.0303422 -0.0126808 0.0582402 -0.0143158 -0.106427 0.0292952 0.0182094 0.0246456 0.0115617 -0.037928 0.118012 -0.0571471 -0.0260293 -0.0107838 -0.00479125 0.0374658 0.0254073 -0.1014 -0.124851 0.0154976 0.0388657 0.0364244 -0.127131 0.0279843 -0.090653 0.0738989 0.0400859 0.0791808 -0.0542648 0.0975782 -0.0655644 -0.0246168 0.0432377 0.0899451 -0.0709394 -0.0261479 -0.114447 0.0799977 0.0463775 -0.0946867 -0.0279171 -0.0621533 -0.00939794 -0.0440652 0.0812396 0.000806099 -0.0915166 -0.0174122 -0.0766187 -0.101371 -0.0646181 0.0992684 -0.031732
this -0.0121764 -0.0159678 0.00102322 -0.0550182 0.0482122 -0.0574464 -0.0678573 -0.137126 0.0936122 0.0301862 -0.0239959 0.106844 -0.0754352 -0.0107478 0.0112154 -0.0394421 -0.15072 0.0257057 -0.10052 -0.0086777 0.117175 -0.00395521 0.101541 0.122117 -0.0667635 -0.113031 -0.0261298 0.0390451 0.0669281 -0.144844 -0.0928073 -0.0539376 0.171728 0.0730906 -0.119063 0.112773 -0.0660046 -0.020335 -0.0585877 0.0359246 -0.035168 0.117703 0.0715047 -0.0483202 -0.0165535 0.0331986 0.0868689 0.0566943 0.042625 -0.0331454 -0.0319507 -0.0567562 -0.164285 -0.194654 0.0364741 -0.0179269 -0.024249 0.0430817 0.110634 0.0265745 -0.0232534 -0.0156393 0.00471066 -0.0399091 0.0804135 -0.0288239 0.0367821 0.0254853 0.0695903 0.0907703 -0.0494128 -0.065688 -0.139525 0.0270146 -0.0480749 -0.0569798 0.0308466 -0.0868101 0.0438653 0.123403 -0.0286249 -0.073338 0.0331362 0.042234 0.0163466 0.101361 -0.00417571 0.0495642 0.0556754 -0.0455372 -0.0639525 -0.031423 -0.0339424 -0.10111 -0.112511 -0.0452526 -0.0430499 -0.130001 0.0701766 0.0637653 0.0160955 0.00151091 -0.0822333 -0.0203125 -0.107073 0.0775326 -0.0205632 0.111913 -0.00270913 0.0819877 0.0047393 -0.0795178 0.0354213 -0.15 -0.094344 0.0363423 0.0162955 -0.00434255 0.0295789 0.0357729 0.0631042 0.000442178 -0.0244853 -0.116202 -0.00798414 0.0293038 0.0192445 -0.0494506 0.00861674 -0.0207216 0.0181626 0.0171036 0.0111136 -0.0485403 0.0317563 -0.0199274 0.0571048 -0.118324 -0.170453 0.0555614 0.0494194 0.0254872 -0.04836 0.0818524 0.0889799 -0.0403017 -0.00690097 0.0311176 -0.0165785 0.0704981 -0.0229801 -0.11289 0.0309581 0.0551525 0.0520821 0.049919 -0.0462749 0.0928193 -0.0768332 -0.040744 -0.00807775 0.0328247 0.0302871 0.0464208 -0.0853864 -0.110726 0.000523153 0.0406242 0.0237147 -0.141361 0.065611 -0.13249 0.0759762 0.0165784 0.0630098 -0.0487 0.129325 -0.0770086 -0.0166485 0.0660803 0.100949 -0.0827178 -0.00976714 -0.117402 0.0513055 0.0539264 -0.0911733 0.00547882 -0.0548942 -0.00966306 -0.0480089 0.0894533 0.00355761 -0.0846989 -0.00582039 -0.0493991 -0.141852 -0.0497753 0.112724 -0.0485394
have -0.0414057 -0.0220634 -0.0127452 -0.0599301 0.0603344 -0.0325979 -0.067333 -0.145023 0.0682981 0.043886 0.0083554 0.109786 -0.0969177 -0.0272096 -0.00939172 -0.059416 -0.181286 0.0357169 -0.0811043 0.00640061 0.0863119 -0.0219167 0.108769 0.128096 -0.046668 -0.105983 -0.054688 0.0677836 0.0698871 -0.144236 -0.0931436 -0.0163312 0.141212 0.047237 -0.137353 0.137138 -0.0600332 -0.00635586 -0.0499972 -0.0152048 -0.0559741 0.100415 0.0695324 -0.0519574 -0.02056 0.0308285 0.0973743 0.0629039 0.0165309 -0.0284487 -0.0435522 -0.0302931 -0.13402 -0.172423 0.0464365 -0.0285862 -0.0354221 0.02735 0.113996 0.027759 -0.00192092 -0.0209742 0.00302177 -0.00479746 0.136234 -0.0256738 0.00230936 0.0488635 0.0744923 0.0896338 -0.0762702 -0.0849856 -0.147859 0.0331484 -0.0510539 -0.034028 0.0462982 -0.085839 0.0274808 0.129897 -0.020655 -0.0737875 0.0245153 0.0591324 -0.0137631 0.0805611 0.0135666 0.0393098 0.0488465 -0.0409769 -0.0492872 -0.0259266 -0.0631766 -0.115195 -0.10625 -0.0499663 -0.0234388 -0.127188 0.0677232 0.0816608 0.0123891 0.0232829 -0.0851951 -0.00426296 -0.138473 0.0614537 -0.0229826 0.131731 0.0178878 0.105922 0.0390053 -0.064094 0.048161 -0.146403 -0.104883 0.00343988 0.00220701 -0.00235285 0.0552646 0.00845155 0.0393262 -0.00728213 -0.0395915 -0.119755 -0.0107752 0.0063193 0.0297564 -0.0739481 0.0319155 -0.057105 0.0314958 0.00812914 0.0283363 -0.0353161 0.0267199 -0.00485993 0.0644693 -0.107861 -0.183656 0.0558232 0.0312128 0.036645 -0.0302968 0.0700838 0.105797 -0.0266587 -0.0485918 0.0269935 -0.0149568 0.0536919 -0.0170765 -0.118652 0.0256168 0.0245421 0.0249026 0.00799859 -0.0342731 0.112767 -0.0646161 -0.0224894 -0.0134956 -0.0162122 0.0313631 0.0340141 -0.112114 -0.121571 0.0201522 0.0432309 0.032149 -0.130191 0.0314693 -0.0861527 0.069697 0.0375714 0.0827117 -0.0375455 0.096595 -0.0667912 -0.0350786 0.0449401 0.0816169 -0.0695674 -0.0202611 -0.121901 0.0796117 0.0397922 -0.0980184 -0.023191 -0.0682136 -0.00678616 -0.0510737 0.0844639 0.00741477 -0.0933343 -0.0153402 -0.07737 -0.0962304 -0.0731366 0.100143 -0.0252135
also -0.0358888 -0.0156426 -0.0086127 -0.052922 0.0609828 -0.0331149 -0.066819 -0.151608 0.0627152 0.0348608 0.00758245 0.10956 -0.0954667 -0.0215886 -0.00636012 -0.0624606 -0.170494 0.0333805 -0.065118 0.006079 0.0765061 -0.0244972 0.118252 0.118601 -0.0541466 -0.117358 -0.0513747 0.0651558 0.0694519 -0.144984 -0.095728 -0.020281 0.157427 0.0549491 -0.150272 0.144612 -0.0617314 -0.00903812 -0.0502711 -0.00149007 -0.0488715 0.104709 0.0780269 -0.0625251 -0.0185055 0.026477 0.0928765 0.0654327 0.0139136 -0.0312387 -0.0442842 -0.0208734 -0.138733 -0.183467 0.0540863 -0.021765 -0.034664 0.0330052 0.104929 0.0206612 0.000913801 -0.0340051 0.00428508 -0.017527 0.120318 -0.0213983 0.00213826 0.0334921 0.0684015 0.0826998 -0.0594721 -0.0827337 -0.143338 0.0308391 -0.0489874 -0.0361775 0.0372215 -0.0778735 0.0186788 0.12201 -0.0174503 -0.0720172 0.0359532 0.0615079 -0.00827216 0.0815133 0.0123435 0.0349729 0.052945 -0.0422393 -0.0525528 -0.0247167 -0.0556227 -0.113585 -0.107742 -0.052472 -0.0194762 -0.13037 0.0749732 0.0857906 0.0163677 0.0186471 -0.0842473 -0.0113617 -0.138029 0.059576 -0.0217474 0.131915 0.0139622 0.0980465 0.0277775 -0.0573527 0.036504 -0.155859 -0.0976293 0.00742325 -0.000948133 -0.00364488 0.0478733 0.0146173 0.0314061 -0.0104891 -0.0319418 -0.125903 -0.0196275 0.014105 0.0190192 -0.0783749 0.0323668 -0.0583879 0.0225016 0.000451304 0.0242796 -0.0403584 0.0290458 0.00514252 0.065849 -0.11887 -0.183493 0.052239 0.0243025 0.0321243 -0.0431587 0.0774387 0.112947 -0.0352022 -0.0438502 0.0338387 -0.00551996 0.0556836 -0.021459 -0.10807 0.023561 0.0202335 0.0248126 0.0102975 -0.0306733 0.120809 -0.0721611 -0.0167207 -0.0149475 -0.000181246 0.0371302 0.0261728 -0.100394 -0.126026 0.0182847 0.0390087 0.0390723 -0.131121 0.0310608 -0.0844231 0.0789427 0.044137 0.0755665 -0.0416125 0.0989834 -0.0837789 -0.0249509 0.0445541 0.0903954 -0.073868 -0.0299325 -0.11125 0.0718594 0.0443938 -0.093376 -0.0148249 -0.0610175 -0.000186199 -0.0525496 0.078363 -0.000290654 -0.101205 -0.0104859 -0.0676337 -0.105318 -0.0675835 0.099352 -0.030126
war -0.0708635 -0.0131137 -0.0235364 -0.0437664 0.0705949 0.0098119 -0.0786546 -0.136193 0.0270697 0.0477508 0.0722666 0.103451 -0.102847 -0.0472351 -0.0455695 -0.0981831 -0.195971 0.0463424 -0.0238352 0.0368992 0.0311221 -0.0488955 0.102844 0.106896 -0.0286568 -0.0890302 -0.0770361 0.100686 0.0771041 -0.130995 -0.0766595 0.039819 0.100299 0.00578421 -0.155664 0.174837 -0.0500872 0.011154 -0.0371289 -0.07079 -0.0751282 0.0728711 0.0582857 -0.0671284 -0.0205933 0.0208609 0.102336 0.076317 -0.0309887 -0.0263846 -0.0539635 0.00624205 -0.0781377 -0.130066 0.0706904 -0.0168941 -0.0481407 0.00582216 0.083803 0.0189895 0.0259436 -0.0338958 0.00447417 0.0298809 0.18473 0.00655845 -0.0398267 0.0633882 0.0638102 0.0643114 -0.0858156 -0.0836295 -0.125839 0.0254478 -0.0354891 0.00166198 0.0455012 -0.0668701 -0.0101897 0.116498 0.0026743 -0.0694848 0.00994221 0.0760458 -0.055861 0.0309054 0.0218072 0.0173082 0.0480806 -0.0158214 -0.0334214 -0.0115699 -0.0948749 -0.112769 -0.0943974 -0.0517226 0.0174818 -0.128404 0.0661613 0.0995587 0.0216212 0.0504769 -0.07843 0.00794516 -0.182734 0.0277312 -0.00552445 0.1461 0.0277546 0.123133 0.0688818 -0.0273717 0.0549527 -0.139051 -0.10044 -0.0423913 -0.0353077 -0.00227123 0.0736182 -0.0197471 0.000338353 -0.0264151 -0.0464611 -0.113399 -0.0304863 -0.0281293 0.0310192 -0.102363 0.0605565 -0.10533 0.0387382 -0.0210712 0.0307719 -0.0216773 0.0276693 0.0230238 0.0743005 -0.0918415 -0.167025 0.047105 -0.010861 0.0505155 -0.0151382 0.0519528 0.118347 -0.0323865 -0.0809691 0.0192449 0.000768472 0.0275983 -0.0100804 -0.100647 0.0078714 -0.0387355 0.00142476 -0.0562124 0.00289681 0.143731 -0.0283262 0.0136068 -0.0279576 -0.0733064 0.0364679 0.00427863 -0.123196 -0.131153 0.0361724 0.0382365 0.0514353 -0.0954809 -0.017497 -0.0169033 0.0624831 0.0721318 0.0973498 -0.032397 0.0394105 -0.0670137 -0.0506542 0.0153198 0.0600896 -0.0573969 -0.041922 -0.104479 0.0983312 0.0196815 -0.0938284 -0.0537338 -0.0756365 0.0031659 -0.050432 0.049398 0.0126133 -0.099442 -0.0163604 -0.122375 -0.00800311 -0.08722 0.0554173 0.0086796
anarchism -0.0163723 -0.0245553 -0.00856038 -0.057355 0.0528155 -0.0583806 -0.0725317 -0.144529 0.0815483 0.0287665 -0.0128162 0.106458 -0.0853177 -0.00325613 0.007596 -0.0409191 -0.143008 0.0149539 -0.0934818 0.00323547 0.0957447 -0.00205593 0.105675 0.108112 -0.0666937 -0.114472 -0.0261735 0.0442373 0.0647594 -0.143966 -0.0868894 -0.0615831 0.169769 0.0685588 -0.141208 0.133496 -0.0620397 -0.0121779 -0.0532769 0.0257766 -0.0376052 0.118914 0.0725212 -0.0569297 -0.0162041 0.0366581 0.091738 0.0514678 0.0275964 -0.0295756 -0.0425971 -0.0360847 -0.149589 -0.189767 0.0332271 -0.0181133 -0.0292976 0.0350042 0.105382 0.0262092 -0.00890047 -0.0266757 0.00928117 -0.0379412 0.0847927 -0.0225471 0.0297214 0.0116557 0.0619573 0.0872939 -0.0392077 -0.0592856 -0.155748 0.0258898 -0.0505008 -0.0454579 0.0245936 -0.0837876 0.0426697 0.118936 -0.0239124 -0.0660646 0.0434117 0.0367159 0.0133089 0.0920363 0.00179522 0.046934 0.0569616 -0.0463322 -0.0572115 -0.0230437 -0.0400216 -0.114241 -0.115449 -0.05168 -0.0386785 -0.132008 0.0680519 0.0665376 0.0157402 0.00239668 -0.08837 -0.0201843 -0.121262 0.0757433 -0.00958206 0.128959 9.09326e-06 0.073757 0.013703 -0.0693955 0.0239018 -0.163356 -0.0978955 0.0284606 0.0241328 -0.00520284 0.0324878 0.0361591 0.0604513 -0.00734968 -0.0279769 -0.124721 -0.00454595 0.0284845 0.0101941 -0.0535998 0.0103052 -0.03147 0.0136348 0.0197097 0.0213269 -0.0421332 0.0295682 -0.00161823 0.0649026 -0.117959 -0.173368 0.0540347 0.0489084 0.0297254 -0.0527671 0.0873803 0.0991578 -0.0346126 -0.0187759 0.0377968 -0.0102565 0.0653238 -0.0201875 -0.113335 0.0277389 0.0467607 0.041754 0.0342267 -0.0371021 0.103811 -0.0765225 -0.0276387 -0.0179782 0.0242381 0.0430374 0.0385948 -0.093415 -0.105741 0.0089816 0.0429357 0.0402349 -0.14463 0.0576594 -0.112123 0.0755853 0.0245325 0.0580869 -0.0455564 0.136854 -0.0855566 -0.0165759 0.0603956 0.103818 -0.0751409 -0.0252374 -0.107145 0.0517212 0.0606804 -0.0797877 0.00534862 -0.0512128 0.00037039 -0.0502114 0.0832279 0.00470811 -0.0986065 -0.00651833 -0.0384915 -0.149487 -0.0534382 0.112362 -0.0458215
achilles -0.0919917 -0.0579611 -0.00596277 -0.0697723 0.0681339 -0.0739626 -0.100955 -0.111378 0.0770871 0.0556672 0.0598909 0.0543851 -0.103078 0.000524684 -0.0306382 -0.0683682 -0.187565 0.0399032 -0.0743485 0.030299 0.0842388 -0.0667398 0.0504945 0.0872362 -0.0313017 -0.0776725 -0.0719066 0.0876384 0.074716 -0.137383 -0.0681519 0.0324947 0.0779439 0.0236791 -0.12221 0.148377 -0.0569872 0.0216603 -0.0231829 -0.0524422 -0.0755826 0.0854554 0.00676971 -0.0207795 0.000249135 0.0194357 0.107241 0.0312432 -0.0447512 -0.0440816 -0.0424019 0.0130848 -0.0863411 -0.138896 0.0445479 -0.0515913 -0.063682 -0.0196105 0.147176 0.0366049 0.0160573 -0.00219263 -0.0534123 -0.00438733 0.18826 -0.0437347 -0.0205997 0.0642593 0.0795021 0.0995493 -0.0822928 -0.071657 -0.158378 0.0264093 -0.0646159 -0.0141922 0.0564769 -0.066918 0.0553719 0.0919838 -0.0162924 -0.0519607 -0.0383648 0.0244322 -0.0428487 0.0390661 0.0668092 0.0326163 0.0374628 -0.00247147 -0.043963 -0.0359937 -0.0641833 -0.095282 -0.104232 -0.0533737 -0.0358179 -0.114807 0.072846 0.100381 0.00569372 0.0750398 -0.0921186 0.00267782 -0.147029 0.00881017 -0.0103794 0.167427 0.00765398 0.103296 0.104146 -0.0562756 0.0454785 -0.115087 -0.110242 -0.0202718 -0.0340141 0.0176907 0.0386397 -0.0271431 0.054934 0.00095266 -0.0554002 -0.113072 -0.0337991 -0.0398061 0.027169 -0.0552042 0.0625277 -0.0767187 0.0681253 -0.0100968 0.0253899 -0.0216535 -0.00319927 -0.00527639 0.0500954 -0.0925964 -0.165932 0.054246 0.000184012 0.0495891 0.0205339 0.0621729 0.113249 0.000699279 -0.0717014 -0.00887883 -0.0379727 0.010112 -0.0155297 -0.134001 0.0173112 -0.0431322 0.0175574 -0.0455427 0.0150813 0.0808409 -0.050029 0.0352565 -0.0424831 -0.104205 0.0120037 0.0407828 -0.156782 -0.0832244 0.050304 0.0484712 0.0483672 -0.161178 -0.00480814 -0.0554578 0.0396587 0.0328672 0.109476 0.00449475 0.06092 -0.0551028 -0.0939251 0.0569248 0.0364404 -0.0329816 0.0386864 -0.126939 0.0768107 0.00647312 -0.0956833 -0.038727 -0.0447183 0.0139032 -0.0639101 0.054314 0.0302949 -0.112738 -0.0480872 -0.0846079 -0.0371895 -0.0936902 0.0804845 0.0197778
some -0.0383816 -0.0223376 -0.0112727 -0.0589966 0.0607915 -0.0326643 -0.0712568 -0.14972 0.0625621 0.0372318 0.00998876 0.108752 -0.0978539 -0.0241286 -0.010638 -0.0662938 -0.174068 0.0317929 -0.0741836 0.0119699 0.0824562 -0.0253419 0.111039 0.118011 -0.0477538 -0.107582 -0.0496877 0.0691715 0.0714519 -0.143974 -0.0918404 -0.0193377 0.149733 0.0517355 -0.144038 0.139914 -0.060179 -0.00412593 -0.0496961 -0.0107566 -0.056711 0.106107 0.0712115 -0.0565081 -0.0167574 0.0287132 0.0982644 0.0682068 0.0133157 -0.0298027 -0.0461631 -0.0289569 -0.133533 -0.173622 0.0515363 -0.0247784 -0.0388055 0.0264432 0.109075 0.0272146 -0.000653667 -0.0279885 0.00907829 -0.0122161 0.135177 -0.0201114 2.9444e-05 0.0422067 0.0689538 0.0826162 -0.0683245 -0.0780067 -0.146628 0.0307841 -0.0489936 -0.0331244 0.0413259 -0.0839058 0.0243826 0.124567 -0.0187959 -0.0707987 0.0309381 0.0591484 -0.0136521 0.0764135 0.0107798 0.0347175 0.0554912 -0.0420936 -0.0483768 -0.023607 -0.0601249 -0.113383 -0.108372 -0.0505479 -0.0230563 -0.13132 0.0718534 0.0837091 0.0147237 0.0243134 -0.0857001 -0.00649968 -0.142501 0.0586262 -0.0207592 0.131952 0.0160084 0.107108 0.0364342 -0.0608211 0.0436588 -0.151454 -0.10107 -0.00104584 -0.00197145 -0.00320144 0.0522215 0.011699 0.0339472 -0.0110085 -0.0369483 -0.123234 -0.0156078 0.00542445 0.0248623 -0.0785182 0.033593 -0.0626769 0.0285919 0.00341278 0.0245656 -0.0388096 0.0294832 0.000867252 0.0660113 -0.109935 -0.179525 0.0567231 0.0243379 0.0380546 -0.0344577 0.0780419 0.107811 -0.0355653 -0.043535 0.0308897 -0.0126634 0.054423 -0.0207434 -0.116315 0.0241236 0.0173475 0.0278673 0.00395602 -0.0278403 0.1236 -0.064723 -0.0164579 -0.0185663 -0.0160344 0.0337541 0.0277997 -0.110825 -0.121336 0.0162597 0.0383414 0.0366649 -0.132925 0.0289502 -0.0847143 0.0760875 0.0414 0.08127 -0.0402911 0.0978563 -0.0732126 -0.0300137 0.0469319 0.0847896 -0.0743047 -0.0224041 -0.115871 0.0789565 0.044331 -0.0958038 -0.0235172 -0.0655685 -0.00771643 -0.0492256 0.0806129 0.00234174 -0.0977273 -0.01842 -0.075576 -0.0951044 -0.0718115 0.0939959 -0.0268117
had -0.0616384 -0.0221015 -0.0134389 -0.0507134 0.0631309 -0.000860878 -0.0716263 -0.143751 0.0422452 0.0515618 0.0488472 0.105834 -0.106644 -0.0402752 -0.0303152 -0.0941761 -0.195379 0.0450313 -0.04751 0.0215133 0.0520786 -0.0455707 0.115971 0.112251 -0.0321603 -0.0998118 -0.0680409 0.0911516 0.0774447 -0.132387 -0.0844727 0.0188217 0.122846 0.027329 -0.149056 0.155245 -0.050933 0.00861062 -0.0364242 -0.0518363 -0.0725734 0.084373 0.0711131 -0.057198 -0.0205361 0.0262265 0.105533 0.0737609 -0.0136674 -0.0279289 -0.0468636 -0.00996217 -0.104475 -0.140325 0.0603047 -0.0244809 -0.047618 0.0154647 0.100952 0.0183418 0.0186768 -0.0264947 0.00756436 0.0171572 0.170063 -0.00479774 -0.0327109 0.060082 0.0697894 0.0694062 -0.0885604 -0.0906285 -0.134444 0.0265817 -0.0420181 -0.00883123 0.0564541 -0.0739301 0.00346221 0.126534 -0.00467691 -0.0772745 0.0150183 0.0722729 -0.0428336 0.0472746 0.015399 0.0270358 0.0522107 -0.0249769 -0.0375321 -0.00875762 -0.0825287 -0.116084 -0.0965466 -0.0485359 0.00463415 -0.122986 0.06648 0.0942934 0.0145585 0.0414456 -0.0794493 0.0066571 -0.166683 0.0381947 -0.012955 0.138859 0.0232098 0.13089 0.061974 -0.0439796 0.0507109 -0.140238 -0.103006 -0.0288856 -0.0217257 -0.00186473 0.0683568 -0.0138996 0.0107649 -0.0161549 -0.0483782 -0.120128 -0.0247183 -0.0179947 0.0340008 -0.0920763 0.0513898 -0.0912629 0.0407165 -0.00693876 0.0289553 -0.0235418 0.0275063 0.0112347 0.0718223 -0.0914111 -0.173506 0.0546979 0.000909535 0.04484 -0.0175044 0.0568366 0.118032 -0.0286276 -0.0754992 0.0257091 -0.00330286 0.038027 -0.0183196 -0.108228 0.014943 -0.0101766 0.0118066 -0.0278084 -0.00737149 0.139667 -0.0410242 0.00150536 -0.0213317 -0.0645159 0.0343111 0.0162745 -0.121054 -0.13125 0.0314424 0.0316091 0.0426196 -0.113582 0.00420439 -0.0376892 0.065957 0.0647969 0.0931523 -0.0354651 0.0562131 -0.0639777 -0.0450946 0.0241831 0.0648055 -0.0624614 -0.0287343 -0.112593 0.09722 0.0262427 -0.0996693 -0.0452578 -0.0753656 0.000706564 -0.0492453 0.0668304 0.00632513 -0.0966697 -0.0240661 -0.111841 -0.0412234 -0.078372 0.0706525 -0.00692846
